tree
version=v4
num_class=1
num_tree_per_iteration=1
label_index=0
max_feature_idx=329
objective=binary sigmoid:1
feature_names=zero_crossing_rate_w085 zero_crossings_w085 spectrogram_w085 mel_spectrogram_w085 harmonics_w085 perceptual_shock_wave_w085 spectral_centroids_w085 spectral_centroids_delta_w085 spectral_centroids_accelerate_w085 chroma_01_w085 chroma_02_w085 chroma_03_w085 chroma_04_w085 chroma_05_w085 chroma_06_w085 chroma_07_w085 chroma_08_w085 chroma_09_w085 chroma_10_w085 chroma_11_w085 chroma_12_w085 tempo_bpm_w085 spectral_rolloff_w085 spectral_flux_w085 spectral_bandwidth_02_w085 spectral_bandwidth_03_w085 spectral_bandwidth_04_w085 mfcc_00_w085 mfcc_delta_00_w085 mfcc_accelerate_00_w085 mfcc_01_w085 mfcc_delta_01_w085 mfcc_accelerate_01_w085 mfcc_02_w085 mfcc_delta_02_w085 mfcc_accelerate_02_w085 mfcc_03_w085 mfcc_delta_03_w085 mfcc_accelerate_03_w085 mfcc_04_w085 mfcc_delta_04_w085 mfcc_accelerate_04_w085 mfcc_05_w085 mfcc_delta_05_w085 mfcc_accelerate_05_w085 mfcc_06_w085 mfcc_delta_06_w085 mfcc_accelerate_06_w085 mfcc_07_w085 mfcc_delta_07_w085 mfcc_accelerate_07_w085 mfcc_08_w085 mfcc_delta_08_w085 mfcc_accelerate_08_w085 mfcc_09_w085 mfcc_delta_09_w085 mfcc_accelerate_09_w085 mfcc_10_w085 mfcc_delta_10_w085 mfcc_accelerate_10_w085 mfcc_11_w085 mfcc_delta_11_w085 mfcc_accelerate_11_w085 mfcc_12_w085 mfcc_delta_12_w085 mfcc_accelerate_12_w085 zero_crossing_rate_w095 zero_crossings_w095 spectrogram_w095 mel_spectrogram_w095 harmonics_w095 perceptual_shock_wave_w095 spectral_centroids_w095 spectral_centroids_delta_w095 spectral_centroids_accelerate_w095 chroma_01_w095 chroma_02_w095 chroma_03_w095 chroma_04_w095 chroma_05_w095 chroma_06_w095 chroma_07_w095 chroma_08_w095 chroma_09_w095 chroma_10_w095 chroma_11_w095 chroma_12_w095 tempo_bpm_w095 spectral_rolloff_w095 spectral_flux_w095 spectral_bandwidth_02_w095 spectral_bandwidth_03_w095 spectral_bandwidth_04_w095 mfcc_00_w095 mfcc_delta_00_w095 mfcc_accelerate_00_w095 mfcc_01_w095 mfcc_delta_01_w095 mfcc_accelerate_01_w095 mfcc_02_w095 mfcc_delta_02_w095 mfcc_accelerate_02_w095 mfcc_03_w095 mfcc_delta_03_w095 mfcc_accelerate_03_w095 mfcc_04_w095 mfcc_delta_04_w095 mfcc_accelerate_04_w095 mfcc_05_w095 mfcc_delta_05_w095 mfcc_accelerate_05_w095 mfcc_06_w095 mfcc_delta_06_w095 mfcc_accelerate_06_w095 mfcc_07_w095 mfcc_delta_07_w095 mfcc_accelerate_07_w095 mfcc_08_w095 mfcc_delta_08_w095 mfcc_accelerate_08_w095 mfcc_09_w095 mfcc_delta_09_w095 mfcc_accelerate_09_w095 mfcc_10_w095 mfcc_delta_10_w095 mfcc_accelerate_10_w095 mfcc_11_w095 mfcc_delta_11_w095 mfcc_accelerate_11_w095 mfcc_12_w095 mfcc_delta_12_w095 mfcc_accelerate_12_w095 zero_crossing_rate_w105 zero_crossings_w105 spectrogram_w105 mel_spectrogram_w105 harmonics_w105 perceptual_shock_wave_w105 spectral_centroids_w105 spectral_centroids_delta_w105 spectral_centroids_accelerate_w105 chroma_01_w105 chroma_02_w105 chroma_03_w105 chroma_04_w105 chroma_05_w105 chroma_06_w105 chroma_07_w105 chroma_08_w105 chroma_09_w105 chroma_10_w105 chroma_11_w105 chroma_12_w105 tempo_bpm_w105 spectral_rolloff_w105 spectral_flux_w105 spectral_bandwidth_02_w105 spectral_bandwidth_03_w105 spectral_bandwidth_04_w105 mfcc_00_w105 mfcc_delta_00_w105 mfcc_accelerate_00_w105 mfcc_01_w105 mfcc_delta_01_w105 mfcc_accelerate_01_w105 mfcc_02_w105 mfcc_delta_02_w105 mfcc_accelerate_02_w105 mfcc_03_w105 mfcc_delta_03_w105 mfcc_accelerate_03_w105 mfcc_04_w105 mfcc_delta_04_w105 mfcc_accelerate_04_w105 mfcc_05_w105 mfcc_delta_05_w105 mfcc_accelerate_05_w105 mfcc_06_w105 mfcc_delta_06_w105 mfcc_accelerate_06_w105 mfcc_07_w105 mfcc_delta_07_w105 mfcc_accelerate_07_w105 mfcc_08_w105 mfcc_delta_08_w105 mfcc_accelerate_08_w105 mfcc_09_w105 mfcc_delta_09_w105 mfcc_accelerate_09_w105 mfcc_10_w105 mfcc_delta_10_w105 mfcc_accelerate_10_w105 mfcc_11_w105 mfcc_delta_11_w105 mfcc_accelerate_11_w105 mfcc_12_w105 mfcc_delta_12_w105 mfcc_accelerate_12_w105 zero_crossing_rate_w115 zero_crossings_w115 spectrogram_w115 mel_spectrogram_w115 harmonics_w115 perceptual_shock_wave_w115 spectral_centroids_w115 spectral_centroids_delta_w115 spectral_centroids_accelerate_w115 chroma_01_w115 chroma_02_w115 chroma_03_w115 chroma_04_w115 chroma_05_w115 chroma_06_w115 chroma_07_w115 chroma_08_w115 chroma_09_w115 chroma_10_w115 chroma_11_w115 chroma_12_w115 tempo_bpm_w115 spectral_rolloff_w115 spectral_flux_w115 spectral_bandwidth_02_w115 spectral_bandwidth_03_w115 spectral_bandwidth_04_w115 mfcc_00_w115 mfcc_delta_00_w115 mfcc_accelerate_00_w115 mfcc_01_w115 mfcc_delta_01_w115 mfcc_accelerate_01_w115 mfcc_02_w115 mfcc_delta_02_w115 mfcc_accelerate_02_w115 mfcc_03_w115 mfcc_delta_03_w115 mfcc_accelerate_03_w115 mfcc_04_w115 mfcc_delta_04_w115 mfcc_accelerate_04_w115 mfcc_05_w115 mfcc_delta_05_w115 mfcc_accelerate_05_w115 mfcc_06_w115 mfcc_delta_06_w115 mfcc_accelerate_06_w115 mfcc_07_w115 mfcc_delta_07_w115 mfcc_accelerate_07_w115 mfcc_08_w115 mfcc_delta_08_w115 mfcc_accelerate_08_w115 mfcc_09_w115 mfcc_delta_09_w115 mfcc_accelerate_09_w115 mfcc_10_w115 mfcc_delta_10_w115 mfcc_accelerate_10_w115 mfcc_11_w115 mfcc_delta_11_w115 mfcc_accelerate_11_w115 mfcc_12_w115 mfcc_delta_12_w115 mfcc_accelerate_12_w115 zero_crossing_rate_w125 zero_crossings_w125 spectrogram_w125 mel_spectrogram_w125 harmonics_w125 perceptual_shock_wave_w125 spectral_centroids_w125 spectral_centroids_delta_w125 spectral_centroids_accelerate_w125 chroma_01_w125 chroma_02_w125 chroma_03_w125 chroma_04_w125 chroma_05_w125 chroma_06_w125 chroma_07_w125 chroma_08_w125 chroma_09_w125 chroma_10_w125 chroma_11_w125 chroma_12_w125 tempo_bpm_w125 spectral_rolloff_w125 spectral_flux_w125 spectral_bandwidth_02_w125 spectral_bandwidth_03_w125 spectral_bandwidth_04_w125 mfcc_00_w125 mfcc_delta_00_w125 mfcc_accelerate_00_w125 mfcc_01_w125 mfcc_delta_01_w125 mfcc_accelerate_01_w125 mfcc_02_w125 mfcc_delta_02_w125 mfcc_accelerate_02_w125 mfcc_03_w125 mfcc_delta_03_w125 mfcc_accelerate_03_w125 mfcc_04_w125 mfcc_delta_04_w125 mfcc_accelerate_04_w125 mfcc_05_w125 mfcc_delta_05_w125 mfcc_accelerate_05_w125 mfcc_06_w125 mfcc_delta_06_w125 mfcc_accelerate_06_w125 mfcc_07_w125 mfcc_delta_07_w125 mfcc_accelerate_07_w125 mfcc_08_w125 mfcc_delta_08_w125 mfcc_accelerate_08_w125 mfcc_09_w125 mfcc_delta_09_w125 mfcc_accelerate_09_w125 mfcc_10_w125 mfcc_delta_10_w125 mfcc_accelerate_10_w125 mfcc_11_w125 mfcc_delta_11_w125 mfcc_accelerate_11_w125 mfcc_12_w125 mfcc_delta_12_w125 mfcc_accelerate_12_w125
feature_infos=[0.063755580357142863:0.6890345982142857] [480:5191] [-58.22662353515625:-3.0073509216308594] [-80:-1.5595663785934448] [-0.0083094369620084763:0.010203661397099495] [-0.00064654828747734427:0.0014485785504803061] [1385.7832048422536:5435.103274471584] [-126.50220485676938:127.25808350288096] [-47.479976552264702:47.379366942356263] [0.0011663523036986589:1] [0.0025587417185306549:1] [0.0015573307173326612:1] [0.0014915558276697993:1] [0.0021062635350972414:1] [0.0016945486422628164:1] [0.0013403275515884161:1] [0.00086987711256369948:1] [0.00069505366263911128:1] [0.0012143629137426615:1] [0.0024946250487118959:1] [0.0018913194071501493:1] [0:312.5] [2446.4285714285716:7758.9285714285716] [0.21597039699554443:1.2849037647247314] [1103.4716393874091:2676.559549161962] [1541.7793848000549:2875.5987780782043] [1842.012010201368:3076.9773122815363] [-619.23602294921875:-5.5378594398498535] [-10.541830062866211:8.4647455215454102] [-3.9043557643890381:9.4024791717529297] [-173.31706237792969:55.427364349365234] [-7.2855277061462402:7.792534351348877] [-1.9745801687240601:8.4515390396118164] [-90.167465209960938:64.033134460449219] [-4.502772331237793:7.0698399543762207] [-3.9266397953033447:1.8392143249511719] [-28.855634689331055:66.581008911132813] [-4.0691370964050293:5.5734281539916992] [-3.2181925773620605:1.4045200347900391] [-61.998741149902344:24.493667602539063] [-3.6146872043609619:3.8021557331085205] [-1.5128937959671021:2.0168454647064209] [-24.735292434692383:47.689311981201172] [-2.7491929531097412:2.9242396354675293] [-1.4689531326293945:1.4740676879882813] [-33.690113067626953:32.439208984375] [-3.2469258308410645:2.9866130352020264] [-1.26106858253479:1.3338243961334229] [-37.815330505371094:44.927070617675781] [-2.4950833320617676:2.5541579723358154] [-1.0763524770736694:1.3988476991653442] [-44.397636413574219:38.667461395263672] [-2.4065265655517578:2.4733006954193115] [-1.1958112716674805:1.2449924945831299] [-39.764839172363281:34.042282104492188] [-2.4168853759765625:2.1547331809997559] [-0.971588134765625:1.3378036022186279] [-31.730485916137695:39.156368255615234] [-2.3318214416503906:2.705768346786499] [-1.0526083707809448:1.1157314777374268] [-35.798149108886719:25.201467514038086] [-2.382678747177124:2.2746124267578125] [-1.2801637649536133:1.1608712673187256] [-30.983341217041016:23.01380729675293] [-2.1646590232849121:2.1189506053924561] [-1.2660635709762573:1.1043963432312012] [0.058626302083333331:0.71116536458333335] [480:5824] [-61.219539642333984:-3.0034937858581543] [-80:-1.2388579845428467] [-0.0085447020828723907:0.0097999712452292442] [-0.00049118039896711707:0.0012233111774548888] [1591.9598698211089:5397.7592744522326] [-114.25048762829059:99.748964372790269] [-37.902697705396186:38.447443069558993] [0.0016910973936319351:1] [0.00049526779912412167:1] [0.00058402155991643667:1] [0.00047146630822680891:1] [0.00065150577574968338:1] [0.00093551416648551822:1] [0.0014660835731774569:1] [0.0010725371539592743:1] [0.0010798431467264891:1] [0.0015449236379936337:1] [0.0020963884890079498:1] [0.0020582401193678379:1] [0:312.5] [2426.5625:7841.145833333333] [0.28258973360061646:1.2674777507781982] [1098.2303903797194:2694.1469270152302] [1536.2833612196414:2893.5932337062227] [1818.1996438860192:3066.4646570620262] [-608.20050048828125:-3.7183213233947754] [-9.7046079635620117:6.6068964004516602] [-2.7456800937652588:7.7169318199157715] [-181.31657409667969:50.723545074462891] [-6.9261155128479004:5.3989949226379395] [-2.0278046131134033:6.8866581916809082] [-91.844902038574219:56.2366943359375] [-3.7135450839996338:6.6759176254272461] [-3.4239561557769775:1.7983797788619995] [-27.528095245361328:66.622673034667969] [-3.7039415836334229:3.8626387119293213] [-2.9893567562103271:1.4864116907119751] [-57.903499603271484:24.483001708984375] [-3.2382583618164063:3.2031927108764648] [-1.6030220985412598:1.4788615703582764] [-25.425201416015625:37.55804443359375] [-2.8375611305236816:2.7063937187194824] [-1.2196114063262939:1.294594407081604] [-37.220500946044922:32.036087036132813] [-3.1091883182525635:2.5014669895172119] [-1.1785298585891724:1.361608624458313] [-42.087291717529297:44.071701049804688] [-2.3581216335296631:2.3104290962219238] [-0.77931082248687744:1.2330776453018188] [-51.463554382324219:44.127933502197266] [-2.1910698413848877:2.1203560829162598] [-1.055419921875:0.87758082151412964] [-40.379928588867188:36.882057189941406] [-2.0362992286682129:2.2470617294311523] [-0.94485354423522949:0.9126051664352417] [-33.445579528808594:36.910873413085938] [-2.1596658229827881:2.1437530517578125] [-0.74379628896713257:1.1579983234405518] [-41.734355926513672:26.700580596923828] [-2.4969503879547119:2.2503104209899902] [-0.82714939117431641:0.9958917498588562] [-31.043514251708984:25.390645980834961] [-1.9481981992721558:1.9433953762054443] [-1.011476993560791:0.80578970909118652] [0.057875689338235295:0.7085822610294118] [527:6443] [-59.515716552734375:-3.31606125831604] [-80:-1.5908682346343994] [-0.0086781186982989311:0.010287446901202202] [-0.00051826500566676259:0.0012295844499021769] [1611.5467306740002:5410.8842329413483] [-90.390894156983464:67.735206181405275] [-41.549843694098612:40.479118049758732] [0.00083911081310361624:1] [0.0038650538772344589:1] [0.002767839003354311:1] [0.0034849760122597218:1] [0.0023394941817969084:1] [0.0023244903422892094:1] [0.001690487377345562:1] [0.0013534679310396314:1] [0.00091453443747013807:1] [0.0012260387884452939:1] [0.0031827774364501238:1] [0.0015928600914776325:1] [117.1875:312.5] [2434.7426470588234:7810.661764705882] [0.24532222747802734:1.2354633808135986] [1092.9567912963046:2702.8585082653485] [1527.8589733464491:2903.0830852518052] [1816.3611500238831:3086.7341496024383] [-602.45196533203125:6.7124218940734863] [-7.9544596672058105:4.8289480209350586] [-2.2066454887390137:6.0826621055603027] [-171.70707702636719:50.8128662109375] [-4.6469564437866211:5.5323219299316406] [-1.7087341547012329:6.1001849174499512] [-100.79646301269531:54.941104888916016] [-3.4469201564788818:5.6939506530761719] [-2.4759705066680908:2.0478878021240234] [-22.968023300170898:71.625411987304688] [-3.089064359664917:3.644035816192627] [-2.5137548446655273:1.4873727560043335] [-51.543445587158203:25.200138092041016] [-2.8067581653594971:2.7452776432037354] [-1.2895139455795288:1.2948119640350342] [-27.047676086425781:41.283348083496094] [-2.0225837230682373:2.0553784370422363] [-1.0903419256210327:1.3617221117019653] [-30.941413879394531:32.612247467041016] [-2.5250022411346436:2.3710222244262695] [-0.98093467950820923:1.1464302539825439] [-41.061870574951172:46.149570465087891] [-1.841500997543335:1.7388187646865845] [-0.79114019870758057:1.0254523754119873] [-51.890182495117188:43.69561767578125] [-1.8764528036117554:2.3129637241363525] [-0.86917191743850708:0.98472380638122559] [-37.239986419677734:35.264484405517578] [-1.951892614364624:1.7645258903503418] [-1.0299344062805176:0.90575087070465088] [-37.192497253417969:40.077667236328125] [-2.0424561500549316:1.9404330253601074] [-0.97684580087661743:0.80760699510574341] [-36.391910552978516:28.838953018188477] [-1.852960467338562:1.540665864944458] [-0.88570272922515869:0.79122304916381836] [-31.341552734375:22.450048446655273] [-1.6716654300689697:1.7033532857894897] [-0.75521326065063477:0.8927006721496582] [0.070610894097222224:0.71910264756944442] [690:7011] [-60.75579833984375:-2.9805834293365479] [-80:-1.4493758678436279] [-0.0083497501909732819:0.010369732975959778] [-0.00039167021168395877:0.00094487908063456416] [1604.0512014253602:5409.4669763500833] [-78.977905108380824:47.373184246698088] [-36.483048749639693:37.499738164165393] [0.0028722495771944523:1] [0.0032492177560925484:1] [0.0024644089862704277:1] [0.0018655585590749979:1] [0.0017274200217798352:1] [0.0016358703142032027:1] [0.0019735917448997498:1] [0.0015012465883046389:1] [0.0012213782174512744:1] [0.0022184071131050587:1] [0.0029567393939942122:1] [0.0021965820342302322:1] [117.1875:312.5] [2416.2326388888887:7839.84375] [0.2492152601480484:1.1894195079803467] [1090.2005961738666:2668.3445042243961] [1523.1839082187721:2878.4860884848299] [1787.2032664380577:3053.6422610290897] [-595.78192138671875:7.8107409477233887] [-7.3155093193054199:4.3693995475769043] [-2.1835756301879883:4.7656211853027344] [-170.81585693359375:48.872276306152344] [-5.5166549682617188:3.6475229263305664] [-1.8591790199279785:4.9208908081054688] [-106.87700653076172:53.286930084228516] [-3.0784223079681396:5.3521008491516113] [-2.1911277770996094:1.4731994867324829] [-25.323417663574219:77.798713684082031] [-2.9029459953308105:3.5985908508300781] [-2.04475998878479:1.1680757999420166] [-53.038852691650391:22.296804428100586] [-2.4602563381195068:2.6898248195648193] [-1.1754531860351563:1.1275638341903687] [-31.847530364990234:41.197402954101563] [-2.2536525726318359:2.2869386672973633] [-0.9081997275352478:1.1707546710968018] [-32.064357757568359:35.466018676757813] [-2.3343105316162109:2.5937755107879639] [-1.0370121002197266:1.1295008659362793] [-38.952297210693359:47.765701293945313] [-1.8639093637466431:1.9269042015075684] [-0.88220763206481934:0.93811827898025513] [-52.88018798828125:38.478473663330078] [-1.7631994485855103:1.9642876386642456] [-0.76214414834976196:1.0842957496643066] [-44.28094482421875:39.091938018798828] [-1.8334211111068726:1.610626220703125] [-0.79714614152908325:1.0065140724182129] [-30.399166107177734:41.003200531005859] [-1.8190926313400269:1.8964818716049194] [-0.71557927131652832:0.70913738012313843] [-37.439743041992188:28.301963806152344] [-1.7712897062301636:1.6715415716171265] [-0.8843274712562561:0.64384174346923828] [-34.737655639648438:25.520849227905273] [-1.672863245010376:1.5842266082763672] [-0.64342266321182251:0.65863311290740967] [0.067431640624999997:0.71687011718750004] [719:7644] [-61.145435333251953:-3.0748763084411621] [-80:-1.6460292339324951] [-0.0083889663219451904:0.0099571766331791878] [-0.00041161908302456141:0.00098595267627388239] [1672.0415701269289:5422.8065009900129] [-68.482947215557346:40.196903918795478] [-33.748925340926533:34.817730436663069] [0.0014187800697982311:1] [0.0018178995233029127:1] [0.001852814108133316:1] [0.0014854319160804152:1] [0.0019192952895537019:1] [0.0021790026221424341:1] [0.0031502209603786469:1] [0.001985031645745039:1] [0.0013344800099730492:1] [0.0014292186824604869:1] [0.0024167823139578104:1] [0.0032203341834247112:1] [117.1875:312.5] [2433.59375:7844.140625] [0.22100493311882019:1.24444580078125] [1110.4067257389343:2656.8472133682999] [1551.72639711227:2880.6709669543407] [1806.0382399198759:3061.8912853595839] [-587.1622314453125:21.881717681884766] [-6.4839792251586914:4.4003190994262695] [-2.3640360832214355:3.6976675987243652] [-168.31159973144531:45.384864807128906] [-3.7400221824645996:3.8931338787078857] [-1.2064924240112305:4.4211268424987793] [-122.80229187011719:49.014148712158203] [-3.0932128429412842:4.8410110473632813] [-1.4161504507064819:1.6517345905303955] [-24.792766571044922:80.563186645507813] [-2.7422585487365723:3.3080527782440186] [-2.0494132041931152:1.0902465581893921] [-45.843818664550781:29.278854370117188] [-2.2402558326721191:2.4431583881378174] [-1.3914940357208252:0.85406196117401123] [-30.045293807983398:39.992832183837891] [-2.1424880027770996:1.6549818515777588] [-0.8359254002571106:1.2790184020996094] [-35.911518096923828:35.634799957275391] [-2.1093897819519043:2.2644503116607666] [-0.76884078979492188:1.0881985425949097] [-38.360691070556641:47.097835540771484] [-1.7309715747833252:1.588060736656189] [-0.85998857021331787:0.76067686080932617] [-54.672492980957031:41.575267791748047] [-1.7168700695037842:2.1352694034576416] [-0.97629851102828979:0.67491519451141357] [-39.661285400390625:40.549152374267578] [-1.4725923538208008:1.7596724033355713] [-0.76703858375549316:0.81215447187423706] [-31.771255493164063:44.975372314453125] [-1.6635297536849976:1.5536540746688843] [-0.7034754753112793:0.72661370038986206] [-36.484447479248047:27.478530883789063] [-1.8710018396377563:1.5416595935821533] [-0.77142322063446045:0.67584311962127686] [-30.694503784179688:26.888479232788086] [-1.7775037288665771:1.361095666885376] [-0.87004101276397705:0.80732929706573486]
tree_sizes=3273 3373 3382 3378 3379 3395 3387 3388 3379 3391 3395 3377 3386 3388 3376 3375 3397 3395 3380 3400 3390 3394 3395 3410 3398 3395 3402 3394 3408 3379 3410 3413 3402 3401 3407 3391 3407 3408 3397 3410 3409 3395 3401 3402 3402 3415 3403 3389 3399 3417 3413 3409 3406 3406 3412 3409 3385 3412 3401 3404 3388 3399 3399 3401 3398 3415 3391 3377 3392 3387 3408 3397 3406 3416 3399 3414 3401 3399 3421 3407 3392 3406 3397 3382 3398 3391 3399 3402 3401 3408 3405 3402 3403 3401 3406 3418 3395 3414 3413 3398 3399 3401 3412 3423 3416 3394 3416 3412 3404 3401 3413 3417 3421 3401 3402 3421 3420 3422 3405 3406 3397 3400 3414 3406 3385 3397 3414 3408 3401 3404 3391 3389 3386 3397 3402 3404 3437 3433 3418 3385 3402 3390 3412 3412 3428 3411 3416 3429 3422 3411 3405 3386 3411 3401 3383 3417 3416 3405 3417 3392 3410 3418 3422 3394 3410 3401 3408 3405 3401 3411 3404 3400 3404 3412 3424 3409 3413 3409 3434 3417 3390 3438 3411 3416 3412 3402 3423 3409 3433 3429 3420 3420 3414 3426 3431 3409 3418 3422 3434 3404 3417 3402 3415 3406 3405 3422 3403 3425 3419 3437 3423 3420 3420 3414 3441 3438 3403 3422 3430 3412 3394 3382 3383 3390 3424 3393 3438 3430 3421 3427 3410 3409 3429 3418 3435 3420 3413 3437 3437 3419 3413 3416 3416 3412 3423 3421 3421 3424 3408 3396 3415 3444 3409 3443 3445 3422 3420 3425 3430 3445 3394 3427 3420 3436 3413 3440 3420 3433 3431 3447 3413 3417 3414 3409 3392 3412 3398 3438 3423 3407 3436 3406 3415 3436 3421 3428 3424 3427 3433 3412 3424 3394 3431 3436 3427 3416 3433 3433 3423 3441 3417 3425 3417 3418 3410 3411 3411 3428 3423 3400 3408 3418 3423 3419 3432 3422 3424 3416 3400 3413 3414 3415 3415 3424 3408 3431 3422 3410 3402 3451 3438 3454 3419 3443 3412 3435 3428 3435 3439 3403 3434 3431 3403 3402 3408 3431 3436 3423 3435 3429 3436 3437 3417 3434 3434 3408 3420 3425 3407 3416 3401 3441 3401 3410 3422 3405 3435 3400 3419 3421 3410 3406 3403 3424 3404 3397 3418 3402 3406 3417 3428 3425 3415 3425 3425 3416 3428 3409 3440 3431 3423 3426 3429 3415 3430 3430 3432 3402 3410 3421 3427 3419 3421 3441 3417 3415 3419 3433 3409 3403 3407 3435 3410 3393 3413 3438 3408 3422 3408 3421 3406 3422 3411 3404 3422 3409 3416 3394 3402 3393 3430 3414 3441 3441 3405 3414 3416 3416 3392 3439 3406 3410 3401 3416 3417 3428 3413 3409 3390 3424 3434 3426 3425 3406 3442 3419 3428 3386 3440 3403 3430 3405 3406 3419 3433 3420 3419 3408 3393 3395 3370 3391 3372 3385 3422 3391 3392 3389 3384 3376 3427 3425 3437 3439 3410 3420 3440 3439 3426 3413 3435 3433 3435 3438 3444 3457 3433 3428 3431 3447 3408 3424 3408 3405 3411 3421 3424 3419 3425 3421 3420 3436 3439 3407 3414 3433 3402 3430 3410 3408 3433 3435 3424 3384 3417 3402 3404 3401 3397 3382 3401 3402 3416 3422 3426 3403 3419 3417 3413 3418 3397 3392 3414 3404 3395 3397 3404 3409 3389 3411 3438 3416 3431 3423 3422 3424 3389 3413 3390 3421 3418 3417 3422 3403 3405 3423 3409 3420 3406 3413 3426 3412 3420 3381 3405 3418 3414 3381 3416 3394 3425 3410 3416 3408 3416 3391 3422 3427 3399 3414 3420 3408 3404 3408 3434 3409 3400 3413 3427 3412 3405 3400 3410 3424 3410 3407 3398 3407 3418 3441 3404 3419 3396 3415 3399 3424 3411 3420 3417 3419 3411 3392 3392 3441 3426 3432 3417 3405 3417 3434 3414 3428 3410 3420 3414 3423 3411 3409 3426 3383 3431 3433 3441 3413 3451 3443 3438 3399 3398 3415 3401 3417 3421 3419 3411 3441 3401 3439 3433 3406 3416 3427 3425 3435 3451 3430 3418 3420 3393 3413 3408 3424 3424 3416 3413 3399 3418 3409 3400 3432 3434 3440 3421 3390 3432 3420 3414 3423 3387 3391 3428 3390 3394 3410 3414 3410 3437 3387 3413 3401 3427 3438 3451 3408 3435 3428 3426 3419 3409 3410 3421 3424 3410 3393 3393 3432 3445 3401 3421 3427 3385 3393 3406 3395 3387 3420 3402 3391 3390 3425 3421 3427 3409 3413 3419 3429 3412 3405 3431 3404 3413 3409 3395 3415 3395 3399 3402 3406 3390 3387 3433 3380 3423 3378 3425 3413 3398 3393 3406 3395 3428 3418 3437 3422 3384 3421 3442 3408 3414 3433 3423 3439 3388 3407 3406 3408 3406 3412 3430 3404 3423 3397 3382 3421 3418 3424 3380 3418 3413 3425 3440 3422 3405 3417 3397 3422 3436 3423 3422 3424 3430 3415 3419 3428 3409 3420 3408 3414 3416 3405 3404 3396 3411 3402 3397 3393 3426 3407 3385 3394 3418 3427 3415 3434 3403 3421 3409 3419 3399 3444 3406 3411 3410 3405 3412 3419 3407 3423 3421 3428 3409 3425 3419 3425 3425 3404 3439 3424 3431 3404 3433 3426 3425 3439 3425 3422 3434 3405 3409 3388 3403 3365 3404 3393 3427 3413 3415 3374 3430 3398 3422 3390 3405 3406 3396 3403 3423 3410 3395 3407 3434 3410 3441 3419 3400 3439 3402 3442 3428 3400 3431 3420 3398 3395 3397 3426 3402 3445 3398 3440 3428 3424 3439 3439 3440 3442 3427 3406 3420 3404 3422 3413 3424 3412 3401 3394 3398 3401 3422 3394 3417 3440 3413 3412 3423 3407 3392 3412 3399 3398 3409 3431 3414 3418 3424 3377 3425 3390 3417 3429 3403 3389 3430 3419 3401 3401 3419 3423 3409 3425 3419 3397 3409 3396 3416 3397 3418 3431 3410 3387 3390 3403 3400 3408 3399 3394 3395 3392 3401 3390 3405 3412 3420 3426 3424 3415 3417 3405 3411 3387 3426 3423 3416 3426 3414 3419 3396 3411 3412 3411 3408 3430 3426 3424 3404 3415 3434 3403 3417 3399

Tree=0
num_leaves=30
num_cat=0
split_feature=159 265 204 28 159 1 280 315 198 2 12 279 270 151 150 27 6 82 278 27 83 2 258 154 264 285 280 96 17
split_gain=1110.04 2505.88 655.581 418.038 371.454 334.532 380.338 289.45 270.88 253.439 248.284 237.225 230.929 206.182 198.631 165.482 151.099 149.039 145.938 277.047 250.694 217.689 199.648 180.215 172.7 166.778 157.19 153.959 226.688
threshold=-189.26524353027341 3482.5000000000005 3615.5738326812721 -0.56146347522735585 -387.76054382324213 3512.5000000000005 0.24263463169336322 -2.0863103866577144 0.2806125217013889 -30.967685699462887 0.38855743408203131 0.016977299004793171 3683.1933227591221 0.99846795201301586 0.97242096066474926 -151.91757202148435 3150.8366290581457 0.57808253169059765 0.078880041837692275 -326.25549316406244 0.20020102709531787 -15.340709209442137 -0.23159796744585034 5641.3143382352946 0.24146728515625002 139.07967032967034 0.071053978055715575 -123.4462432861328 0.088971924036741271
decision_type=2 2 2 2 2 2 2 2 2 2 2 2 2 2 2 2 2 2 2 2 2 2 2 2 2 2 2 2 2
left_child=4 2 7 9 -1 6 11 -2 16 -3 -4 -6 -11 14 -7 -12 -9 -5 19 22 21 27 23 -13 -25 -23 -22 28 -21
right_child=1 3 10 17 5 13 -8 8 -10 12 15 18 -14 -15 -16 -17 -18 -19 -20 20 26 25 -24 24 -26 -27 -28 -29 -30
leaf_value=-1.7577027352765542 -1.7569987300542116 -1.7447373003529829 -1.6913682879849061 -1.7525541844429557 -1.7530970424344428 -1.7562880087273745 -1.7523143434932285 -1.7580820148428349 -1.739647874706703 -1.7520975983348732 -1.7492953715573356 -1.7340277185377542 -1.7169127287894863 -1.7163454592367136 -1.6987721726657152 -1.6971814872433404 -1.6973816259072303 -1.7392722516949231 -1.745429248511716 -1.7481970411466483 -1.6931769045357983 -1.7453727629477378 -1.7475380429002358 -1.7546928810041422 -1.7064514084296949 -1.6961610475384206 -1.7377918056769781 -1.7527744223812267 -1.6867988242449823
leaf_weight=421.85241866111755 27.693549066781998 121.3963794708252 126.96038019657135 502.90979287028313 264.79585272073746 557.41170907020569 797.54892221093178 4.5523642301559439 37.430550336837769 23.394093960523605 13.657092690467836 290.59258335828781 92.058921098709106 13.657092690467833 6.0698189735412589 11.001546889543532 41.350641757249832 101.54301324486732 1068.5410484671593 18.209456920623783 13.40418356657028 14.162910938262941 91.047284603118896 8.8518193364143354 45.903005987405777 13.40418356657028 19.221093416213989 299.57085725665092 8.9782738983631116
leaf_count=3336 219 960 1004 3977 2094 4408 6307 36 296 185 108 2298 728 108 48 87 327 803 8450 144 106 112 720 70 363 106 152 2369 71
internal_value=-1.74634 -1.73749 -1.71053 -1.74591 -1.74883 -1.74777 -1.74641 -1.72899 -1.71968 -1.73465 -1.69701 -1.74423 -1.72404 -1.75474 -1.75567 -1.72604 -1.7034 -1.75032 -1.74299 -1.73983 -1.74599 -1.74843 -1.73436 -1.73089 -1.71425 -1.72144 -1.71946 -1.75071 -1.72792
internal_weight=0 1103.95 262.646 841.302 3953.22 3531.37 2954.23 111.027 83.3336 236.849 151.619 2156.68 115.453 577.139 563.482 24.6586 45.903 604.453 1891.89 823.346 386.951 354.326 436.395 345.347 54.7548 27.5671 32.6253 326.759 27.1877
internal_count=39992 8730 2077 6653 31262 27926 23362 878 659 1873 1199 17055 913 4564 4456 195 363 4780 14961 6511 3060 2802 3451 2731 433 218 258 2584 215
is_linear=0
shrinkage=1


Tree=1
num_leaves=30
num_cat=0
split_feature=159 265 204 28 159 66 148 315 198 2 12 270 279 33 278 159 15 102 142 27 36 82 276 25 297 297 6 42 12
split_gain=1082.78 2378.64 597.833 407.331 368.012 332.681 349.31 277.091 251.561 242.207 222.988 219.144 207.98 168.566 164.12 280.005 243.234 202.191 184.19 154.78 154.134 146.398 145.134 144.58 141.377 141.125 140.034 128.036 127.777
threshold=-189.26524353027341 3482.5000000000005 3615.5738326812721 -0.56146347522735585 -387.76054382324213 0.47485351562500006 0.36285533010959631 -2.0863103866577144 0.2806125217013889 -30.967685699462887 0.38855743408203131 3683.1933227591221 0.01628078427165747 33.704679489135749 0.078880041837692275 -300.09770202636713 0.065022308379411711 39.891759872436531 0.69725018739700328 -151.91757202148435 -7.0518519878387442 0.57808253169059765 0.049131032079458244 2246.4841071558785 11.950762271881105 22.826209068298343 3150.8366290581457 26.882915496826175 0.12273118644952775
decision_type=2 2 2 2 2 2 2 2 2 2 2 2 2 2 2 2 2 2 2 2 2 2 2 2 2 2 2 2 2
left_child=4 2 7 9 -1 6 12 -2 26 -3 -4 -11 27 20 15 17 -17 -14 -18 -12 -7 -5 23 -8 -13 -23 -9 -6 -16
right_child=1 3 10 21 5 13 22 8 -10 11 19 24 14 -15 28 16 18 -19 -20 -21 -22 25 -24 -25 -26 -27 -28 -29 -30
leaf_value=-0.011342078071403175 -0.010634170684898327 0.0015828031554633111 0.052367084424151687 -0.0061812398136619111 -0.0078964034832258289 0.054938275466845377 -0.0073429614894887293 -0.011723750915336579 0.006591930277805854 -0.0057253760544347656 -0.0029340244730815149 0.016469643006538536 0.015148786012254367 0.03438722696942792 0.0096761919880796084 -0.0086225623151016655 0.0032513993769629611 0.0019729977702567084 0.032478123246852182 0.047018188402793273 -0.0094166189115003924 0.0021767449553074269 -0.0075116186767395475 0.057505766539030646 0.041004135900138482 0.03587074908194305 0.046833256533066595 0.06050117546442884 -0.00069287382573959399
leaf_weight=418.48872327804565 27.486384809017181 121.53300762176514 131.91142123937607 500.71449437737465 237.23130665719509 3.7460776567459098 6.8206333220005018 4.5148567557334891 37.606786012649536 23.299466967582703 13.628713846206667 47.760828584432602 343.33178234100342 9.0976465940475446 133.04908002912998 186.28402262926102 112.61826612055302 176.26140902936459 26.669118970632553 11.384842112660406 570.8330871462822 87.560476899147034 599.15042382478714 6.932229608297348 46.211828738451004 14.487509965896605 42.785392552614212 2.7687968611717215 1113.0527454316616
leaf_count=3336 219 960 1004 3977 1885 29 54 36 296 185 108 370 2694 71 1052 1478 887 1387 209 87 4542 689 4757 55 358 114 327 22 8804
internal_value=0 0.0087005 0.0345672 0.000422643 -0.00247568 -0.00142391 -5.66129e-05 0.0169623 0.025896 0.0114757 0.0471762 0.0217279 0.00170952 -0.00832082 0.00272137 0.00612296 -0.00114849 0.0106792 0.00884739 0.0198016 -0.00899704 -0.00395639 -0.00677436 0.0253445 0.0285347 0.0069602 0.0412439 -0.00710732 0.000414255
internal_weight=0 1110.89 269.318 841.568 3946.34 3527.85 2944.17 112.393 84.907 238.805 156.925 117.272 2331.27 583.677 2091.27 845.165 325.571 519.593 139.287 25.0136 574.579 602.762 612.903 13.7529 93.9727 102.048 47.3002 240 1246.1
internal_count=39992 8730 2077 6653 31262 27926 23284 878 659 1873 1199 913 18418 4642 16511 6655 2574 4081 1096 195 4571 4780 4866 109 728 803 363 1907 9856
is_linear=0
shrinkage=0.01


Tree=2
num_leaves=30
num_cat=0
split_feature=159 265 204 28 159 1 280 315 133 2 279 270 27 151 150 6 138 42 0 27 297 18 77 297 13 315 15 14 9
split_gain=1056.39 2261.56 547.416 396.972 364.607 325.951 368.391 265.569 235.269 231.656 228.799 208.221 207.499 198.029 187.672 139.473 136.592 133.938 131.463 131.438 159.234 297.527 130.706 130.49 121.523 154.141 137.27 145.723 120.795
threshold=-189.26524353027341 3482.5000000000005 3615.5738326812721 -0.56146347522735585 -387.76054382324213 3512.5000000000005 0.24263463169336322 -2.0863103866577144 2480.5000000000005 -30.967685699462887 0.016977299004793171 3683.1933227591221 -206.96121978759763 0.99846795201301586 0.97242096066474926 3150.8366290581457 3471.7529028687459 26.882915496826175 0.33312988281250006 -135.16815948486325 12.513356208801271 0.23490620404481891 0.14962998777627948 11.950762271881105 0.42105582356452947 -28.887969017028805 0.058956723660230644 0.20034759491682055 0.99999544024467479
decision_type=2 2 2 2 2 2 2 2 2 2 2 2 2 2 2 2 2 2 2 2 2 2 2 2 2 2 2 2 2
left_child=4 2 7 9 -1 6 10 -2 15 -3 17 -11 -4 14 -7 -9 -10 -6 -14 20 -5 -22 -8 -13 25 -12 27 -26 -27
right_child=1 3 12 19 5 13 22 8 16 11 24 23 18 -15 -16 -17 -18 -19 -20 -21 21 -23 -24 -25 26 28 -28 -29 -30
leaf_value=-0.011319550459680579 -0.010607680753656548 0.001565225435594105 0.0067444416212639156 -0.0042668132935098999 -0.0074778153835825673 -0.0098930628014593427 0.0083894461689834419 -0.011703660023135836 -0.011267470725177451 -0.0056911691824309578 -0.0087461850188660598 0.016118885982301455 0.053449050342061266 0.028740699304098841 0.044745051605513696 0.047152309084781366 0.024905013039503404 0.058224111287508311 0.030577651658818959 -0.0075774819136754925 -0.0021757542452361775 0.036598855673157731 -0.0070674260647582421 0.039455766174004356 0.0037903650478623287 0.0066039188977051614 -0.0028555676787427892 0.042349636885862164 -0.0029515768079324766
leaf_weight=415.14513570070267 27.280507944524288 121.66819095611572 12.903954580426214 144.67909820377827 259.26389572024345 549.98600943386555 59.125578656792641 4.477567881345748 19.38529896736145 23.205589801073074 79.991361945867538 48.309332132339478 117.16617235541344 14.053495317697523 6.3591794073581687 39.953054919838905 22.621035560965538 3.1403315663337699 31.994029194116592 373.55550527572632 50.170181050896645 32.679666325449944 732.27362310886383 47.538195580244064 33.460820958018303 1192.0297819375992 431.94919790327549 13.86107364296913 148.81059871613979
leaf_count=3336 219 960 98 1150 2070 4408 469 36 151 185 632 370 865 108 48 296 176 24 236 2975 397 258 5838 358 264 9370 3414 109 1172
internal_value=0 0.00855993 0.0334134 0.000417758 -0.00245552 -0.00141138 -7.49992e-05 0.0165942 0.0251794 0.0112691 0.00206137 0.0211862 0.0452151 -0.00833206 -0.00926853 0.041221 0.00821195 -0.00669153 0.0485433 -0.00392798 0.00206374 0.0131187 -0.00591264 0.0276934 0.00327014 0.00473893 -0.00108419 0.0150848 0.00554342
internal_weight=0 1117.59 275.782 841.806 3939.45 3524.3 2953.91 113.717 86.437 240.721 2162.51 119.053 162.064 570.399 556.345 44.4306 42.0063 262.404 149.16 601.084 227.529 82.8498 791.399 95.8475 1900.1 1420.83 479.271 47.3219 1340.84
internal_count=39992 8730 2077 6653 31262 27926 23362 878 659 1873 17055 913 1199 4564 4456 332 327 2094 1101 4780 1805 655 6307 728 14961 11174 3787 373 10542
is_linear=0
shrinkage=0.01


Tree=3
num_leaves=30
num_cat=0
split_feature=159 265 138 28 159 1 280 315 279 2 133 12 270 151 150 27 82 278 27 83 2 258 154 159 27 20 96 84 280
split_gain=1030.83 2153.33 503.313 386.969 361.237 321.724 362.066 252.459 224.475 221.761 216.179 200.652 198.102 192.621 180.779 160.051 143.427 135.706 259.523 237.933 208.63 188.586 165.329 159.525 152.937 146.527 143.1 208.222 136.883
threshold=-189.26524353027341 3482.5000000000005 3618.4010615300308 -0.56146347522735585 -387.76054382324213 3512.5000000000005 0.24263463169336322 -2.0863103866577144 0.016977299004793171 -30.967685699462887 2480.5000000000005 0.36523683369159704 3683.1933227591221 0.99846795201301586 0.97242096066474926 -151.91757202148435 0.57808253169059765 0.078880041837692275 -326.25549316406244 0.19614467024803164 -15.340709209442137 -0.23159796744585034 5641.3143382352946 -338.29025268554682 -292.22863769531244 0.12306907027959825 -123.4462432861328 0.086939085274934783 0.071053978055715575
decision_type=2 2 2 2 2 2 2 2 2 2 2 2 2 2 2 2 2 2 2 2 2 2 2 2 2 2 2 2 2
left_child=4 2 7 9 -1 6 8 -2 -6 -3 -9 -4 -11 14 -7 -13 -5 18 21 20 26 22 25 -24 -22 -10 27 -20 -21
right_child=1 3 11 16 5 13 -8 10 17 12 -12 15 -14 -15 -16 -17 -18 -19 19 28 24 -23 23 -25 -26 -27 -28 -29 -30
leaf_value=-0.011297248539619165 -0.010581355693110108 0.0015478626852030413 0.048287206958099758 -0.0061210256254881825 -0.006656411328244855 -0.0098634182483576943 -0.0058781988130468966 0.039496652071974669 0.017056976817008969 -0.0056570751966578741 0.0078438534754197917 -0.0027096179764041876 0.026899484946675153 0.027892970979694481 0.042964321384725696 0.044303712651694839 0.0068726547411702933 0.00087483255927327892 -0.011745456472406131 0.048632683478058471 0.0029322978205834956 -0.0013015272828378135 0.0088099014324053513 0.043417651961723668 0.049688636169961463 0.0023987277126571475 -0.0064411875505418119 0.043518678740415817 0.0084342449646151764
leaf_weight=411.82165592908859 27.075920104980469 121.80195808410645 139.42162768542767 496.95776206254959 261.16382781416178 546.14188838005066 788.10026955604553 45.265108421444893 189.94380548596382 23.1124597042799 41.230574414134026 15.39466552436352 97.678721815347672 14.334360510110853 6.5554990768432608 13.672474712133406 102.46594174206257 1070.9252162724733 12.903041191399099 14.547035917639731 15.615073442459108 91.758694723248482 21.330974191427231 35.46252179145813 12.673609048128126 106.393470749259 298.173239544034 14.456101849675177 20.28058323264122
leaf_count=3336 219 960 993 3977 2094 4408 6307 329 1473 185 319 119 728 108 48 98 803 8450 102 110 121 720 164 269 96 825 2362 111 158
internal_value=0 0.00842349 0.0323372 0.000412834 -0.00243547 -0.00139891 -7.44372e-05 0.0160668 0.00203763 0.0110691 0.0244085 0.0433044 0.02067 -0.0082982 -0.00923683 0.0194043 -0.00389988 0.00322986 0.00625559 0.000285615 -0.0021692 0.0114709 0.0147897 0.0304194 0.0238796 0.0117943 -0.00443284 0.0174552 0.0252246
internal_weight=0 1124.08 282.06 842.017 3932.58 3520.76 2953.73 113.572 2165.63 242.593 86.4957 168.489 120.791 567.032 552.697 29.0671 599.424 1904.46 833.538 388.649 353.821 444.889 353.131 56.7935 28.2887 296.337 325.532 27.3591 34.8276
internal_count=39992 8730 2077 6653 31262 27926 23362 867 17055 1873 648 1210 913 4564 4456 217 4780 14961 6511 3060 2792 3451 2731 433 217 2298 2575 213 268
is_linear=0
shrinkage=0.01


Tree=4
num_leaves=30
num_cat=0
split_feature=159 265 204 28 159 66 280 315 279 2 264 270 27 33 36 77 27 297 18 30 1 213 228 75 156 297 126 42 297
split_gain=1006.16 2053.18 464.458 377.286 357.89 320.155 352.57 244.565 216.772 212.521 209.466 189.318 179.451 157.754 140.424 132.78 129.579 154.872 282.432 121.859 153.979 302.781 151.806 144.947 160.601 139.618 121.794 116.18 114.878
threshold=-189.26524353027341 3482.5000000000005 3615.5738326812721 -0.56146347522735585 -387.76054382324213 0.47485351562500006 0.24263463169336322 -2.0863103866577144 0.01628078427165747 -30.772602081298825 0.27738037109375008 3683.1933227591221 -206.96121978759763 33.704679489135749 -7.0518519878387442 0.14962998777627948 -135.16815948486325 12.513356208801271 0.23490620404481891 -137.38983917236325 2253.5000000000005 0.037418454885482795 -103.39288330078124 0.061765059828758247 1771.0094746835168 2.5754247903823857 -10.710540771484373 26.882915496826175 11.950762271881105
decision_type=2 2 2 2 2 2 2 2 2 2 2 2 2 2 2 2 2 2 2 2 2 2 2 2 2 2 2 2 2
left_child=4 2 7 9 -1 6 8 -2 27 -3 -9 -11 -4 14 -7 -8 17 -5 -19 23 21 25 -23 -10 -25 -21 -26 -6 -13
right_child=1 3 12 16 5 13 15 10 19 11 -12 28 -14 -15 -16 -17 -18 18 -20 20 -22 22 -24 24 26 -27 -28 -29 -30
leaf_value=-0.011275170554305438 -0.010555192060309512 0.001825224905579241 0.0063058841985963888 -0.0042158803905448109 -0.0077982046577531432 0.049817624805138967 0.0087425156681597647 0.036572903358088833 -0.0081565487251174188 -0.0055228466415111512 0.0054358477711205578 0.015720605305889718 0.044719774589675299 0.032099501932512521 -0.0093269069853342077 -0.0069698836660694518 -0.0075204148600069489 -0.0021414228733404499 0.035384914388285227 0.013333654300331108 0.00023377140205426477 0.026449820519924012 -2.4399557399510667e-05 0.004688596861036046 0.0058595496435407506 0.061650597009254772 0.049971775987629433 0.054919042317555247 0.037608699808019397
leaf_weight=408.51835852861404 26.872624553740025 125.86556910723448 13.170296281576155 143.93537203967571 233.55518668889999 4.0433026999235144 58.093764364719391 52.870065450668335 19.442250937223434 22.646776780486107 36.535360187292099 48.141487270593643 158.69448193907738 9.5421406030654889 560.06685501337051 724.84214375168085 370.3297320753336 50.025670245289803 33.477250128984451 271.81506776809692 1095.5423472449183 22.752638816833496 450.70128907263279 25.522740885615349 8.5143242925405485 6.1151090040802947 23.629681289196014 2.9914661347866049 47.774099588394165
leaf_count=3336 219 989 98 1150 1885 29 460 377 153 182 282 358 1101 71 4542 5832 2975 397 258 2109 8612 177 3540 200 67 45 182 22 344
internal_value=0 0.0082915 0.0313331 0.00040823 -0.0024157 -0.00138668 -5.47678e-05 0.0158978 0.00202861 0.0108752 0.0238488 0.0204826 0.0417761 -0.00822095 -0.00890298 -0.00580403 -0.00387171 0.00206935 0.0129033 0.00313923 0.00262501 0.00611151 0.00124786 0.0154559 0.0234168 0.0143967 0.0382873 -0.00700506 0.0266227
internal_weight=0 1130.34 288.143 842.196 3925.69 3517.17 2943.52 116.278 2160.58 244.428 89.4054 118.562 171.865 573.652 564.11 782.936 597.768 227.438 83.5029 1924.04 1846.93 751.384 473.454 77.109 57.6667 277.93 32.144 236.547 95.9156
internal_count=39992 8730 2077 6653 31262 27926 23284 878 16992 1873 659 884 1199 4642 4571 6292 4780 1805 655 15085 14483 5871 3717 602 449 2154 249 1907 702
is_linear=0
shrinkage=0.01


Tree=5
num_leaves=30
num_cat=0
split_feature=159 265 6 28 159 67 280 12 27 279 2 67 231 324 158 151 0 150 82 77 297 278 159 15 258 286 20 159 142
split_gain=982.234 1960.14 435.701 367.923 354.58 314.853 347.005 244.946 261.131 217.509 206.411 198.229 198.032 184.759 184.402 167.521 155.421 142.085 140.522 126.493 125.23 124.262 247.228 253.293 191.244 177.379 190.538 190.336 166.965
threshold=-189.26524353027341 3482.5000000000005 3530.5763307110874 -0.56146347522735585 -387.76054382324213 3904.5000000000005 0.24263463169336322 0.34835773706436163 -148.68865966796872 0.01628078427165747 -33.820489883422844 2272.5000000000005 13.646791934967043 -5.7847056388854972 2743.8302297644227 0.99846795201301586 0.32782854352678575 0.99156665802001964 0.57808253169059765 0.14962998777627948 22.826209068298343 0.078880041837692275 -300.09770202636713 0.065022308379411711 -0.23159796744585034 5578.7109375000009 0.12306907027959825 -338.29025268554682 0.69725018739700328
decision_type=2 2 2 2 2 2 2 2 2 2 2 2 2 2 2 2 2 2 2 2 2 2 2 2 2 2 2 2 2
left_child=4 2 11 10 -1 6 9 16 -9 -6 -3 13 -12 -2 -14 17 -4 -7 -5 -8 -20 22 24 -24 25 26 -11 -27 -25
right_child=1 3 7 18 5 15 19 8 -10 21 12 -13 14 -15 -16 -17 -18 -19 20 -21 -22 -23 23 28 -26 27 -28 -29 -30
leaf_value=-0.011253309201379243 -0.00012060482801505259 -0.0032614167722551696 0.049007427091152946 -0.0060613001468072455 -0.0070302163728988556 -0.0095762271099881363 0.0082196524297325022 -0.0037159933051491806 0.043276245129146025 0.015618656799558582 0.0066289434553284737 -0.0054483388406456976 0.036119853265872554 0.043492178672922321 -0.00050397187038843188 0.025885629488482859 0.026428469655576613 0.050105358270435441 0.002174686676285864 -0.0069410598100314649 0.03317836661976957 0.00082165071114078834 -0.0085213981976033602 0.0038352536777538243 -0.0023761714212154413 0.0038485026382344134 0.00042805757784079683 0.038361996072236372 0.031051252193389906
leaf_weight=405.23529320955276 16.195066675543785 74.144512459635735 126.2439753562212 493.24481841176748 238.37714629620314 540.78041135519743 59.572567239403725 25.783941343426704 21.842740774154663 228.8217745795846 91.489511035382748 39.527618065476418 62.999732106924057 24.270673096179962 17.585549712181091 14.009527027606962 40.191728830337524 4.0186684280633918 87.569400936365128 722.24915345013142 15.305116817355154 1072.6843280643225 187.33749391883612 116.49435532093048 99.002196446061134 23.587707459926605 129.19181296229362 49.534459538757801 27.949308469891548
leaf_count=3336 124 583 849 3977 1931 4419 469 196 152 1753 698 310 459 168 133 103 278 28 689 5840 114 8449 1494 907 775 180 999 369 210
internal_value=0 0.00816327 0.0303916 0.000403485 -0.00239602 -0.00137448 -7.26778e-05 0.0378327 0.0178358 0.00198288 0.010687 0.0104793 0.0166971 0.0260376 0.0281277 -0.00825799 0.0435549 -0.00913599 -0.00384398 -0.00578586 0.00678725 0.00309345 0.00592078 -0.000849147 0.0101577 0.0130358 0.010137 0.0272287 0.00910145
internal_weight=0 1136.39 294.056 842.339 3918.85 3513.61 2954.8 214.062 47.6267 2172.98 246.219 79.9934 172.075 40.4657 80.5853 558.809 166.436 544.799 596.119 781.822 102.875 1934.6 861.919 331.781 530.138 431.136 358.014 73.1222 144.444
internal_count=39992 8730 2077 6653 31262 27926 23376 1475 348 17067 1873 602 1290 292 592 4550 1127 4447 4780 6309 803 15136 6687 2611 4076 3301 2752 549 1117
is_linear=0
shrinkage=0.01


Tree=6
num_leaves=30
num_cat=0
split_feature=159 265 246 159 82 66 148 297 279 22 1 327 27 19 14 183 189 151 278 159 16 102 42 246 19 3 150 86 9
split_gain=959.036 1873.55 406.279 351.297 344.089 311.917 325.665 203.079 190.883 189.397 180.56 181.305 153.685 158.172 229.357 236.694 159.77 149.184 144.861 253.554 230.524 186.429 148.806 139.221 139.133 150.927 136.417 126.047 125.575
threshold=-189.26524353027341 3482.5000000000005 3.4509502649307255 -387.76054382324213 0.57808253169059765 0.47485351562500006 0.36285533010959631 24.057966232299808 0.01628078427165747 6403.1808035714294 1960.5000000000002 -0.54128950834274281 -120.3147850036621 0.55251452326774608 0.0225822888314724 11.676303386688234 18.008239746093754 0.99846795201301586 0.078880041837692275 -300.09770202636713 0.055091056972742088 40.980596542358406 8.4184560775756854 -9.2007913589477521 0.3071254193782807 -11.245635986328123 0.97242096066474926 0.33751431107521063 0.36400893330574041
decision_type=2 2 2 2 2 2 2 2 2 2 2 2 2 2 2 2 2 2 2 2 2 2 2 2 2 2 2 2 2
left_child=3 2 9 -1 12 6 8 24 -5 10 -2 -12 13 -3 -15 -16 -17 26 19 21 -21 27 -22 -8 -6 28 -7 -10 -26
right_child=1 4 -4 5 7 17 23 -9 18 -11 11 -13 -14 14 15 16 -18 -19 -20 20 22 -23 -24 -25 25 -27 -28 -29 -30
leaf_value=-0.011231661065601748 0.042981334284392915 -0.0032675490740133972 -0.00055967567012727944 -0.0069346300021550381 0.0007701632340938987 -0.0095409591495986754 0.0081042460821773629 0.038271018266243781 0.015922330382522869 0.040287653198649319 0.0017306108162563271 0.038982112810475804 -0.007629300463615373 -0.0070967190919085221 -0.0041912973773752431 0.040971284052200428 -0.011714981208151454 0.022641742988156126 0.00040324854948106106 -0.0094356293228803501 8.8532421236200921e-05 0.00079495573593584608 0.020134518001652557 -0.0081977935315283197 0.024450181731518326 0.059089210528823877 0.037441787010939157 -0.0017601778489809206 -0.0098365343706107305
leaf_weight=401.97253453731537 29.151342466473579 206.58833564817905 39.080417349934578 234.19101774692535 94.526915952563286 545.41503133624792 57.985585600137711 26.456136509776115 332.22150169312954 169.12087774276733 43.816286519169807 18.616508960723877 339.14352253079414 43.080617308616638 23.698647312819958 44.081005901098251 6.6201253607869139 15.305589184164999 1246.9925678521395 166.66603393107653 102.01820439100266 156.37640641629696 58.131927289068699 542.56635904312134 34.129076823592186 8.6015121862292272 6.2508806139230719 45.880101196467876 15.548491671681402
leaf_count=3336 195 1641 303 1907 728 4488 462 191 2515 1123 323 133 2736 342 185 332 53 111 9856 1334 799 1209 441 4404 257 66 43 357 122
internal_value=0 0.0080386 0.0295082 -0.00237653 0.000398892 -0.00136242 -5.39956e-05 0.0126914 0.00163033 0.0340154 0.022433 0.0128384 -0.00292368 0.00200082 0.0112652 0.0218975 0.034092 -0.00815419 0.00258173 0.00573577 -0.00120284 0.00997851 0.0073649 -0.00662377 0.00826261 0.0204151 -0.0090086 0.0137767 0.0137188
internal_weight=0 1142.26 299.785 3911.97 842.474 3510 2943.03 179.262 2342.48 260.705 91.5841 62.4328 663.212 324.069 117.48 74.3998 50.7011 566.972 2108.29 861.294 326.816 534.478 160.15 600.552 152.806 58.2791 551.666 378.102 49.6776
internal_count=39992 8730 2077 31262 6653 27926 23284 1364 18418 1774 651 456 5289 2553 912 570 385 4642 16511 6655 2574 4081 1240 4866 1173 445 4531 2872 379
is_linear=0
shrinkage=0.01


Tree=7
num_leaves=30
num_cat=0
split_feature=159 265 6 28 159 66 280 12 93 279 2 66 231 158 324 33 1 82 36 77 158 212 291 16 135 85 18 265 2
split_gain=936.47 1792.51 386.15 354.397 348.05 307.849 335.639 208.919 214.346 205.098 195.722 192.392 182.192 168.213 168.212 147.912 143.644 134.895 129.887 127.841 119.194 117.977 131.731 350.533 186.448 172.327 213.634 178.836 155.624
threshold=-189.26524353027341 3482.5000000000005 3526.5289421379775 -0.56146347522735585 -387.76054382324213 0.47485351562500006 0.24263463169336322 0.36523683369159704 -138.67988586425778 0.01628078427165747 -33.820489883422844 0.27696940104166673 13.646791934967043 2743.8302297644227 -5.7847056388854972 33.704679489135749 2461.5000000000005 0.57808253169059765 -7.0518519878387442 0.14962998777627948 2037.0209748419441 0.2017168998718262 -275.28503417968744 0.055091056972742088 -31.87946796417236 0.12829351425170901 0.20192023366689685 4282.5000000000009 -8.5664038658142072
decision_type=2 2 2 2 2 2 2 2 2 2 2 2 2 2 2 2 2 2 2 2 2 2 2 2 2 2 2 2 2
left_child=4 2 11 10 -1 6 9 16 -9 -6 -3 14 -12 -14 -2 18 -4 -5 -7 -8 -11 22 24 -24 25 26 -22 -27 -25
right_child=1 3 7 17 5 15 19 8 -10 20 12 -13 13 -15 -16 -17 -18 -19 -20 -21 21 -23 23 28 -26 27 -28 -29 -30
leaf_value=-0.011210222100537681 -0.00010953764918551142 -0.0032303339380261127 0.045403878036031124 -0.0060027004239504161 -0.0068995337512085964 0.045947647373784525 0.0084664002266826039 -0.0040416127337028233 0.03904901976586353 -0.0068282426623096464 0.0064939889392598869 -0.0059388710176463671 0.034328076865233349 -0.00051243057514710434 0.04138880175615145 0.030047174689671982 0.02458830436811835 0.0065319388622500805 -0.0092368825341224304 -0.0068730617617046678 0.010617280338219195 -0.0011665866467436262 -0.0087265782832904263 0.0064434438198407856 -0.0074475765688919318 -0.0049125530849747174 0.048297566360479112 0.017680251894145089 0.052024423374833609
leaf_weight=398.7301322221756 16.123964264988899 73.933469280600548 134.88514492660761 489.62581344693899 233.03428542613983 4.2984946817159644 58.79877533018589 24.273506298661232 22.012339383363724 115.32673364132643 92.070501267910004 39.368721522390842 65.281980350613594 17.592001006007195 24.778242886066437 9.9735336154699308 43.955378241837025 104.11222487688065 549.36017197370529 715.06275629252195 574.22416107356548 396.84454236924648 216.97261467576027 344.0476171374321 76.215235471725464 142.69319526851177 15.451647654175757 46.438000410795212 7.657164752483367
leaf_count=3336 122 583 860 3977 1907 29 460 184 146 903 698 308 459 133 164 71 293 803 4542 5832 4397 3131 1732 2685 595 1113 116 357 56
internal_value=0 0.00791678 0.0286726 0.000394062 -0.00235715 -0.00135042 -5.36671e-05 0.035387 0.0164512 0.00196363 0.010411 0.00984129 0.016176 0.0269323 0.0250298 -0.00812089 0.0402878 -0.00380475 -0.00880844 -0.00570755 0.00303055 0.00365508 0.00499908 0.00126923 0.00747981 0.00894063 0.0116046 0.000634732 0.00743581
internal_weight=0 1148.01 305.397 842.616 3905.13 3506.4 2942.77 225.126 46.2858 2168.91 248.878 80.2709 174.944 82.874 40.9022 563.632 178.841 593.738 553.659 773.862 1935.87 1820.54 1423.7 568.677 855.022 778.807 589.676 189.131 351.705
internal_count=39992 8730 2077 6653 31262 27926 23284 1483 330 16992 1873 594 1290 592 286 4642 1153 4780 4571 6292 15085 14182 11051 4473 6578 5983 4513 1470 2741
is_linear=0
shrinkage=0.01


Tree=8
num_leaves=30
num_cat=0
split_feature=291 265 22 159 28 1 280 279 2 231 33 224 315 135 151 27 297 18 327 42 30 1 213 143 14 12 189 141 135
split_gain=915.185 1500.77 521.14 339.228 330.137 300.059 339.146 197.582 175.054 196.014 174.276 165.968 159.883 191.974 138.633 137.262 139.505 245.389 125.664 122.611 119.81 141.664 279.621 132.251 140.554 119.211 116.889 134.163 114.259
threshold=-177.11491394042966 3482.5000000000005 6403.1808035714294 -387.76054382324213 -0.56146347522735585 3512.5000000000005 0.24716420471668246 0.01628078427165747 -33.820489883422844 13.646791934967043 33.704679489135749 2755.6409213131606 -1.6804362535476682 -44.197284698486321 0.99600645899772655 -135.16815948486325 12.513356208801271 0.23490620404481891 2.1403613090515141 26.882915496826175 -134.82834625244138 2253.5000000000005 0.037418454885482795 0.99751785397529613 0.81128492951393139 0.41396398842334753 -14.193110942840574 0.0527261570096016 -16.872653961181637
decision_type=2 2 2 2 2 2 2 2 2 2 2 2 2 2 2 2 2 2 2 2 2 2 2 2 2 2 2 2 2
left_child=3 2 12 -1 8 6 7 19 -3 28 14 -11 -2 -14 -7 16 -6 -18 -15 -5 23 22 -22 24 -9 -4 -23 -28 -10
right_child=1 4 25 5 15 10 -8 20 9 11 -12 -13 13 18 -16 -17 17 -19 -20 -21 21 26 -24 -25 -26 -27 27 -29 -30
leaf_value=-0.011188989430967211 -0.0069284638302573136 -0.0028685287998717491 0.038990129930935903 -0.007703707195367151 -0.0032609280707678223 -0.0097549008612441371 -0.0060603518978679573 0.0041417936409937897 0.0033348409102706097 0.033838870276685758 0.034339449938130449 0.00077242621600554754 -0.00043706053615139142 0.019094065604124105 0.022634172103937842 -0.0074151981673712909 -0.0018657863492779314 0.03276176613547057 0.048217477248402869 0.052910369435050474 0.013495253503868028 0.04825093066563043 0.00093778061468374697 0.035997412425054595 0.059386804608999207 0.01205219766377515 -0.0066934340183255761 0.0017029856537063429 0.053746889907262174
leaf_weight=395.50808626413345 35.516030944883823 76.640907794237137 170.05905646085739 230.7348347902298 156.43187335878611 525.29626397788525 722.30131569504738 72.767945267260075 96.802920281887054 65.881318338215351 9.4675083309411985 19.723638415336609 41.100381754338741 61.710249684751034 13.556107714772223 364.42417292296886 48.587738238275051 35.357378721237183 19.496787577867508 3.386177346110343 283.5094350874424 4.997597247362136 473.43777444213629 20.859420515596867 4.9164257645606986 18.184819623827934 246.96203316003084 829.46554884314537 4.7149180099368087
leaf_count=3336 286 607 1078 1900 1261 4379 5899 564 737 454 66 148 313 426 97 2975 385 262 129 24 2144 39 3697 154 38 127 1947 6486 34
internal_value=0 0.00754174 0.0251516 -0.00241804 0.000525347 -0.0014101 -0.000124703 0.00185008 0.00986099 0.0150747 -0.0081928 0.0262203 0.0117495 0.0171733 -0.00894008 -0.00354608 0.0023197 0.0127192 0.0260862 -0.00682702 0.00289891 0.00232308 0.0056411 0.0136411 0.0076381 0.0363879 6.3118e-07 -0.000223383 0.00567619
internal_weight=0 1214.63 346.067 3837.17 868.565 3441.66 2893.34 2171.04 263.764 187.123 548.32 85.605 157.823 122.307 538.852 604.801 240.377 83.9451 81.207 234.121 1936.92 1838.37 756.947 98.5438 77.6844 188.244 1081.43 1076.43 101.518
internal_count=39992 9222 2359 30770 6863 27434 22892 16993 1980 1373 4542 602 1154 868 4476 4883 1908 647 555 1924 15069 14313 5841 756 602 1205 8472 8433 771
is_linear=0
shrinkage=0.01


Tree=9
num_leaves=30
num_cat=0
split_feature=159 265 246 159 28 66 148 2 29 231 92 151 92 14 246 82 150 84 246 81 76 30 143 289 265 213 278 83 159
split_gain=894.253 1648.96 349.873 341.585 337.486 299.978 312.243 182.492 181.654 164.097 150.245 140.778 139.078 136.895 136.581 132.119 127.919 121.604 119.681 126.517 124.724 111.841 134.978 149.7 115.343 206.192 202.284 152.11 151.681
threshold=-189.26524353027341 3482.5000000000005 4.2571394443511972 -387.76054382324213 -0.56146347522735585 0.47485351562500006 0.36285533010959631 -33.820489883422844 4.3132131099700937 13.646791934967043 2742.4192115106875 0.99846795201301586 2089.1653141289503 0.23728478699922564 -9.2007913589477521 0.57808253169059765 0.97242096066474926 0.551374912261963 -2.9670628309249873 0.65496903657913219 0.25666707754135137 -134.82834625244138 0.99751785397529613 2224.4513768088891 3891.5000000000005 0.037418454885482795 0.038749346509575851 0.059916853904724128 -216.74655914306638
decision_type=2 2 2 2 2 2 2 2 2 2 2 2 2 2 2 2 2 2 2 2 2 2 2 2 2 2 2 2 2
left_child=3 2 8 -1 7 6 12 -3 13 -9 -11 16 17 -2 -8 -6 -7 -5 19 20 -15 22 23 -14 25 26 28 -26 -23
right_child=1 4 -4 5 15 11 14 9 -10 10 -12 -13 21 18 -16 -17 -18 -19 -20 -21 -22 24 -24 -25 27 -27 -28 -29 -30
leaf_value=-0.011167957395131057 0.041093853947881669 -0.0031820774712795863 -0.0023058500861576781 -0.0060756102959021521 -0.0059440520088512964 -0.0094544356418830942 0.0080093258765645374 0.0063163132649564028 -0.0040858601770927374 0.032053725282264203 -0.0012340503965551604 0.021308070833104861 0.0024101224526923795 0.025362445123408541 -0.0081176435461562373 0.006449543201940273 0.035013504588251754 0.027527015621786576 0.039529166363180081 0.039569478286751711 -0.00016381552475802421 0.00066839746939080904 0.03634835656832093 0.043808286486246406 -0.0080501224790545563 0.00071059315057944521 0.015137932314512889 0.0025369611657261068 0.046264804689745559
leaf_weight=392.30644637346268 113.61428447067738 73.610538154840469 35.703632473945618 285.96997795253992 486.01585579663515 534.7289431989193 58.22956183552742 92.848154783248901 14.068977817893026 68.884185761213303 16.88212800770998 15.86209252476692 76.083590447902679 43.474957674741745 535.14561460912228 104.51007230579853 6.5482641905546179 11.191128119826315 48.680402912199497 26.10676097869873 34.198809020221233 225.69203702360392 19.428299002349377 9.867867246270178 232.52538497000933 908.48894368112087 246.22525485605001 325.92868001759052 7.5394535958766928
leaf_count=3336 696 583 277 2268 3977 4488 462 698 106 465 127 111 593 286 4404 803 43 87 311 163 238 1765 139 73 1871 7144 1860 2565 53
internal_value=0 0.00768853 0.0271757 -0.00231958 0.000385077 -0.00132763 -5.35947e-05 0.0100679 0.0309331 0.0155285 0.0255014 -0.00805596 0.00158371 0.0327847 -0.00653506 -0.00375066 -0.00891647 -0.00481013 0.0265928 0.0205247 0.0141235 0.00250974 0.0125437 0.00716294 0.00196649 0.00351063 0.00881624 -0.00187122 0.00214235
internal_weight=0 1158.6 315.848 3891.76 842.751 3499.46 2942.32 252.225 280.144 178.614 85.7663 557.139 2348.94 266.075 593.375 590.526 541.277 297.161 152.461 103.781 77.6738 2051.78 105.38 85.9515 1946.4 1387.95 479.457 558.454 233.231
internal_count=39992 8730 2077 31262 6653 27926 23284 1873 1800 1290 592 4642 18418 1694 4866 4780 4531 2355 998 687 524 16063 805 666 15258 10822 3678 4436 1818
is_linear=0
shrinkage=0.01


Tree=10
num_leaves=30
num_cat=0
split_feature=159 264 270 28 159 1 280 33 2 273 202 279 151 27 297 294 14 277 9 138 114 225 158 27 290 76 159 22 159
split_gain=831.09 1558.12 346.459 340.732 332.097 295.628 304.391 180.031 179.633 173.96 174.806 170.033 128.184 126.491 124.398 134.51 117.059 171.872 147.498 163.399 113.797 173.159 110.548 107.784 107.266 130.228 115.397 215.628 104.226
threshold=-189.26524353027341 0.32579345703125007 3692.4330697228647 -0.62634214758872975 -387.76054382324213 3512.5000000000005 0.24716420471668246 33.704679489135749 -33.573398590087884 0.59855425357818615 0.0011699806782417002 0.01628078427165747 0.99600645899772655 -117.92417144775389 11.950762271881105 -41.517889022827141 0.024293908849358562 0.27083094418048864 0.033773209899663932 4447.179756123207 -6.5453479290008536 -198.36208343505857 2063.2390780246856 -206.96121978759763 2471.1570258368711 0.91111916303634655 -335.42842102050776 6136.4397321428578 -294.06877136230463
decision_type=2 2 2 2 2 2 2 2 2 2 2 2 2 2 2 2 2 2 2 2 2 2 2 2 2 2 2 2 2
left_child=4 2 9 8 -1 6 11 12 -3 10 -2 -6 -7 16 -10 -16 -5 18 -18 -20 21 -8 -13 -4 28 -26 -27 -28 -24
right_child=1 3 23 13 5 7 20 -9 14 -11 -12 22 -14 -15 15 -17 17 -19 19 -21 -22 -23 24 -25 25 26 27 -29 -30
leaf_value=-0.010978527863673156 -0.00041856272079628359 -0.0027339777619050632 0.0068091680817672015 -0.01013412756645787 -0.0062756883549665091 -0.0097575084651404329 -0.0013336356071071522 0.033146096622130979 0.0085627030828229252 0.027508954502454087 0.042697041990559369 -0.0046287574402216602 0.021660507799136468 -0.0079799211288979297 0.032796572863763002 -0.0027065752345213695 -0.0078838637032056305 -0.0063868543873700006 0.0021981777668598126 0.02693672766151858 -0.007236979861502053 0.034232167941410464 0.0065699493709249239 0.038484664807423456 -0.006330996158356304 -0.0096522720107256928 0.032066117974816184 -0.0092554714601870841 0.0010810393342023583
leaf_weight=396.70711403340101 69.831453092396259 68.797169432044029 11.54065592586994 71.073165468871593 233.13171969354153 512.88901285082102 99.56775039434433 10.353286452591417 86.87077871710062 63.535947494208813 10.866763561964033 183.69747807830572 13.323373898863791 315.64627292752266 58.777499511837959 13.038596369326113 31.003817744553089 88.402723789215088 45.230783738195896 65.166331090033054 635.21895491331816 15.871352046728132 956.25414218753576 155.32929916679859 204.28256743401289 23.480856612324715 34.35822656750679 19.967670314013958 542.0341721996665
leaf_count=3401 510 544 78 578 1930 4335 810 70 644 425 68 1445 93 2594 390 98 245 712 361 492 5238 125 7315 931 1604 183 259 157 4267
internal_value=0 0.00735319 0.0264829 0.000301917 -0.00230923 -0.00132222 -7.95239e-05 -0.00814953 0.0107619 0.015132 0.00538735 0.0017987 -0.00896202 -0.00355761 0.016613 0.0263508 0.00108178 0.00455061 0.0113886 0.0168011 -0.00557716 0.00355619 0.00275711 0.036294 0.00351918 -0.00213773 0.00887174 0.0168782 0.00458423
internal_weight=0 1155.11 311.104 844.007 3881.14 3484.43 2947.86 536.566 227.484 144.234 80.6982 2197.21 526.212 616.523 158.687 71.8161 300.877 229.804 141.401 110.397 750.658 115.439 1964.08 166.87 1780.38 282.089 77.8068 54.3259 1498.29
internal_count=39902 8670 2012 6658 31232 27831 23333 4498 1676 1003 578 17160 4428 4982 1132 488 2388 1810 1098 853 6173 935 15230 1009 13785 2203 599 416 11582
is_linear=0
shrinkage=0.01


Tree=11
num_leaves=30
num_cat=0
split_feature=291 198 270 159 1 148 27 199 27 12 51 312 279 99 1 204 9 154 32 99 2 27 51 212 42 92 96 76 210
split_gain=827.691 1352.4 560.551 320.464 292.816 333.425 253.398 241.502 222.118 193.633 241.043 159.226 155.907 149.912 148.501 134.913 242.698 160.169 134.761 132.245 124.261 124.068 121.973 118.761 149.974 111.037 110.216 109.141 144.35
threshold=-179.13793945312497 0.36847601996527785 3692.4330697228647 -387.76054382324213 3512.5000000000005 0.34774611890316015 -218.73394012451169 2625.5000000000005 -120.3147850036621 0.023874839767813686 -6.1365056037902823 5.8747105598449716 0.01497227977961302 32.225925445556648 2561.5000000000005 4443.8258011440221 0.046653330326080329 7071.9209558823541 3.4923194646835332 16.882062911987308 -23.910172462463375 -82.459060668945298 1.5896527171134951 0.20533308386802676 -14.241348266601561 2045.277754020731 -69.176685333251939 0.20739273726940158 0.99999535083770763
decision_type=2 2 2 2 2 2 2 2 2 2 2 2 2 2 2 2 2 2 2 2 2 2 2 2 2 2 2 2 2
left_child=3 2 7 -1 5 12 -4 11 9 -3 -11 -2 -5 -6 -8 18 -17 -18 -12 -16 -9 26 -20 24 -14 -26 -22 -27 -29
right_child=1 8 6 4 13 -7 14 20 -10 10 15 -13 23 -15 19 16 17 -19 22 -21 21 -23 -24 -25 25 27 -28 28 -30
leaf_value=-0.010956838125162184 0.02997295126903814 -0.0085217595865333794 -0.00043236287628989388 -0.0072105018737440027 -0.0089926411490540443 -0.0070295557177099122 0.039053272733431593 -0.0048560957925975722 -0.0074978313122597978 -0.0084907104913339807 -0.0014547659328866009 -0.0093573662760339602 0.016492019150464849 0.033124694063185106 0.0087756995560205851 -0.0053572547950481875 0.042696610450228392 0.016835945277454103 0.048913846717397458 0.035514400162263593 -0.0090313686290729844 -0.0061757993036473738 0.00053210941090756341 -0.0018628466365332224 -0.007423776284456389 -0.0021622785695956841 0.034871184374948995 0.0041593357759946888 0.020706746104931905
leaf_weight=393.53342711925507 62.48745022714138 103.10036904364824 24.307299591600895 187.88156121224165 515.12525495886803 568.67652268707752 155.99175564944744 101.86013027280569 330.99772758036852 75.107496507465839 91.067615941166878 12.323434568941591 85.960547566413879 8.5920683592557889 37.816953539848328 32.304892100393772 37.087785951793194 67.607352912425995 11.328163184225561 36.205805882811546 7.2730910629034033 19.452399127185345 9.6491702273488027 518.82267684489489 97.234978973865509 265.0224119797349 26.749329410493374 1095.3648061528802 55.383063197135925
leaf_count=3401 405 826 181 1562 4358 4708 932 790 2711 610 714 97 644 58 270 247 267 492 83 245 57 150 73 4127 770 2067 183 8444 430
internal_value=0 0.00698991 0.0200408 -0.00241397 -0.00142461 -0.000171586 0.0302734 0.00873332 -0.00134867 0.00341516 0.00721183 0.0234942 0.00151988 -0.00830167 0.0335183 0.0119474 0.0186036 0.025997 0.0038088 0.0218541 0.00162435 0.0139685 0.0266592 0.00229441 0.00364333 0.00291333 0.025486 0.00362329 0.00495573
internal_weight=0 1242.72 484.468 3791.6 3398.06 2874.35 254.322 230.146 758.251 427.253 324.152 74.8109 2305.67 523.717 230.015 249.045 137 104.695 112.045 74.0228 155.335 53.4748 20.9773 2117.79 1598.97 1513.01 34.0224 1415.77 1150.75
internal_count=39902 9333 3310 30569 27168 22752 1628 1682 6023 3312 2486 502 18044 4416 1447 1876 1006 759 870 515 1180 390 156 16482 12355 11711 240 10941 8874
is_linear=0
shrinkage=0.01


Tree=12
num_leaves=30
num_cat=0
split_feature=159 265 159 28 204 1 280 315 33 279 199 82 297 151 212 42 189 12 114 265 93 75 91 133 152 63 27 76 152
split_gain=794.108 1442.13 325.897 320.032 307.394 287.904 294.591 174.531 171.001 164.172 154.569 129.379 138.209 126.095 115.212 139.416 130.389 114.741 155.637 123.782 113.059 147.729 218.752 154.407 147.595 139.042 112.788 112.777 112.435
threshold=-189.26524353027341 3482.5000000000005 -387.76054382324213 -0.62634214758872975 3615.5738326812721 3512.5000000000005 0.24716420471668246 -1.6804362535476682 33.704679489135749 0.01628078427165747 2791.5000000000005 0.59450671076774608 21.698701858520511 0.99600645899772655 0.2017168998718262 -13.17346668243408 -14.193110942840574 0.02825292851775885 -2.3395828008651729 5393.5000000000009 -247.09722900390622 0.29293398559093481 2258.3979837304696 4085.5000000000005 0.61573845148086559 -3.6245899200439449 -209.29436492919919 0.88817167282104503 0.034925023093819625
decision_type=2 2 2 2 2 2 2 2 2 2 2 2 2 2 2 2 2 2 2 2 2 2 2 2 2 2 2 2 2
left_child=2 4 -1 17 7 6 9 -2 13 -4 -9 27 -13 -7 15 -11 -16 -3 19 -19 -8 22 24 -23 -22 -24 -6 -5 -17
right_child=1 3 5 11 26 8 20 10 -10 14 -12 12 -14 -15 16 28 -18 18 -20 -21 21 23 25 -25 -26 -27 -28 -29 -30
leaf_value=-0.010935323133464177 -0.0091941356211823772 -0.003495381095644665 -0.0062121721341040458 -0.0066708679859970501 0.0028664130343238454 -0.0097030331422812179 -0.0074648241247777516 0.028850012149808851 0.03143783493882437 0.014709024912650564 0.0024837081864962848 0.0010009323482667056 0.030034898725283216 0.021325873787034457 0.049368623396393078 -0.0032812229858215892 -0.0025202895994709306 0.024454897169246287 -0.00014190187215386708 -0.0022798701672605928 -0.0089725094665135882 -0.0094157677233370728 0.056150577943366121 0.052850678341029196 0.049973952661859909 0.0092474613569585185 0.034554093966979484 0.018445694281116178 0.0043462249874384185
leaf_weight=390.3804425150156 28.254800982773304 47.544156290590763 231.2020185738802 479.90633507072926 11.941806666553019 505.96556647866964 595.71645237505436 60.134183466434479 10.726374536752699 111.95416631549597 35.27830845117569 92.964343719184399 19.906125158071518 13.44479179382324 4.8993314653635016 230.18898558616638 419.40280946344137 105.48555295914412 54.604572169482708 20.72011236846447 33.336942046880722 81.056701593101025 14.860310062766077 4.1883020401000968 4.8679888993501654 10.997985467314718 189.14215730130672 18.569032058119774 1204.6652198433876
leaf_count=3401 231 358 1930 3956 82 4335 4950 374 70 834 258 721 137 93 37 1789 3313 739 415 154 272 671 115 35 40 90 1096 149 9257
internal_value=0 0.00714766 -0.00227184 0.000226893 0.0250425 -0.00129927 -7.89623e-05 0.0126364 -0.0080837 0.00175986 0.0191012 -0.00354618 0.00612144 -0.00889986 0.00269495 0.00396118 -0.00192114 0.0103281 0.013963 0.0200657 -0.00551458 0.00226658 0.0137407 -0.00635646 -0.00146168 0.0362019 0.0326723 -0.00573523 0.00312258
internal_weight=0 1164.45 3867.85 839.7 324.751 3477.47 2947.34 123.667 530.137 2202.31 95.4125 611.346 112.87 519.41 1971.11 1546.81 424.302 228.354 180.81 126.206 745.025 149.308 64.0632 85.245 38.2049 25.8583 201.084 498.475 1434.85
internal_count=39902 8670 31232 6629 2041 27831 23333 863 4498 17160 632 4963 858 4428 15230 11880 3350 1666 1308 893 6173 1223 517 706 312 205 1178 4105 11046
is_linear=0
shrinkage=0.01


Tree=13
num_leaves=30
num_cat=0
split_feature=291 198 270 27 1 148 27 199 27 18 297 33 279 312 14 1 76 225 39 99 2 27 92 212 291 15 135 85 265
split_gain=791.539 1266.61 510.261 308.474 288.279 310.175 230.123 225.671 216.443 176.578 257.319 170.374 157.778 147.503 145.436 129.81 126.185 155.446 157.705 122.826 119.759 116.931 113.184 120.996 144.971 253.938 178.058 177.011 198.623
threshold=-179.13793945312497 0.36847601996527785 3692.4330697228647 -406.59887695312494 3512.5000000000005 0.36285533010959631 -218.73394012451169 2625.5000000000005 -122.85072708129881 0.24198602885007861 12.513356208801271 33.704679489135749 0.01497227977961302 5.8747105598449716 0.024840764701366428 2561.5000000000005 0.92082658410072338 -128.59030914306638 -10.456727981567381 16.882062911987308 -23.910172462463375 -82.459060668945298 2045.277754020731 0.20533308386802676 -273.77593994140619 0.056679336354136474 -31.87946796417236 0.12829351425170901 4311.5000000000009
decision_type=2 2 2 2 2 2 2 2 2 2 2 2 2 2 2 2 2 2 2 2 2 2 2 2 2 2 2 2 2
left_child=3 2 7 -1 5 12 -4 13 9 -3 16 -6 -5 -2 -12 -8 17 -11 -19 -17 -9 -22 -14 24 26 -26 27 -24 -29
right_child=1 8 6 4 11 -7 15 20 -10 10 14 -13 22 -15 -16 19 -18 18 -20 -21 21 -23 23 -25 25 -27 -28 28 -30
leaf_value=-0.010619679083205037 0.028542234169025738 -0.0029874487073323509 -0.00047229186218067208 -0.0074322142965542598 -0.0090808714893058223 -0.0070177975678896902 0.036837386253121739 -0.0048500216126720662 -0.0072012059448395204 -0.0068674136403521361 -0.0018593500892479292 0.031058234444860652 -0.0074575423570147487 -0.0093304312619290567 0.031990055092139091 0.0084138187807915616 0.046322639991054251 0.0014133312530994232 0.048533299713944711 0.033883737584881488 0.024503240147706929 -0.006144006491515426 0.010548965640592189 -0.001471663590053425 -0.0085319521380421235 0.005309129229926394 -0.0073600938729720001 -0.0054509832666259491 0.016492573238104508
leaf_weight=405.17658799141645 64.450087875127792 207.01605659723282 24.36891757696867 184.48239832371473 507.66000331938267 533.09781931340694 162.29180101305246 101.7320461422205 343.50287217646837 94.615917459130287 16.136386901140213 10.799664959311484 114.68120046705008 12.236044354736803 59.48568993806839 38.366335563361645 6.0178663060069075 18.841545715928081 11.400792337954043 37.380966641008854 34.839756064116955 19.371449746191502 645.18123776465654 507.39973451197147 210.65485072135925 357.51513784378767 83.680913023650646 162.43776519596577 55.289371147751808
leaf_count=3522 405 1631 181 1549 4356 4460 932 790 2831 756 127 69 913 97 405 270 46 144 83 245 240 150 4864 4056 1689 2763 653 1262 413
internal_value=0 0.00679904 0.0192368 -0.00237539 -0.00138502 -0.00013906 0.028796 0.008454 -0.00133444 0.00353904 0.0100819 -0.00824476 0.00144066 0.0224993 0.0247672 0.0317923 0.0015965 -0.000559188 0.0191767 0.0209831 0.00154714 0.013552 0.00220669 0.00275477 0.0041705 0.000177406 0.00656728 0.00791789 0.000121337
internal_weight=0 1252.05 495.037 3778.06 3372.88 2854.42 262.408 232.629 757.017 413.514 206.498 518.46 2321.32 76.6861 75.6221 238.039 130.876 124.858 30.2423 75.7473 155.943 54.2112 2136.84 2022.16 1514.76 568.17 946.589 862.908 217.727
internal_count=39902 9333 3310 30569 27047 22622 1628 1682 6023 3192 1561 4425 18162 502 532 1447 1029 983 227 515 1180 390 16613 15700 11644 4452 7192 6539 1675
is_linear=0
shrinkage=0.01


Tree=14
num_leaves=30
num_cat=0
split_feature=291 198 270 159 1 212 27 199 27 12 51 279 33 42 204 10 14 32 1 76 2 99 315 189 27 51 30 30 151
split_gain=773.992 1224.02 484.613 312.2 282 284.188 218.077 216.983 213.081 184.882 227.673 183.453 165.642 154.843 122.349 192.411 158.476 127.618 121.853 120.838 116.617 115.815 114.061 112.633 112.291 111.163 111.033 112.519 110.907
threshold=-179.13793945312497 0.36847601996527785 3692.4330697228647 -387.76054382324213 3512.5000000000005 0.20533308386802676 -218.73394012451169 2625.5000000000005 -120.3147850036621 0.023874839767813686 -6.1365056037902823 0.01628078427165747 33.704679489135749 -10.709832668304442 4443.8258011440221 0.058419123291969306 0.025970702059566978 3.4923194646835332 2561.5000000000005 0.17680526524782184 -23.910172462463375 16.882062911987308 -1.6804362535476682 10.494348526000978 -82.459060668945298 1.5896527171134951 -122.12047958374022 -102.66306304931639 0.99600645899772655
decision_type=2 2 2 2 2 2 2 2 2 2 2 2 2 2 2 2 2 2 2 2 2 2 2 2 2 2 2 2 2
left_child=3 2 7 -1 5 11 -4 22 9 -3 -11 -5 28 23 17 -16 -17 -12 -8 -15 -9 -20 -2 -13 -22 -19 -21 -28 -6
right_child=1 8 6 4 12 -7 18 20 -10 10 14 13 -14 19 15 16 -18 25 21 26 24 -23 -24 -25 -26 -27 27 -29 -30
leaf_value=-0.010895314009359116 -0.0066206268757141697 -0.0084579461029194412 -0.00046771836588199045 -0.0062283856481710354 -0.0098001550907987692 -0.004371392234493102 0.035748387807538466 -0.0048177534908087913 -0.00741149036319271 -0.0084303911267510721 -0.0014630467373161152 0.02318432732048294 0.030175983779875008 -0.0049884515041980042 -0.0030529323511173895 -0.0086604783269941341 0.028786414640505402 0.046178550607041652 0.0082844572920582199 0.011718283938566054 0.023882833489133018 0.032855228776586705 0.027114833293533317 0.0065934236195385196 -0.0061086541668916349 0.00048234534712440487 -0.0033661793444789839 0.0041477339471062856 0.020149077904292625
leaf_weight=384.50256472826004 11.820572406053541 101.91069335490465 24.361170053482056 227.1193413734436 490.60414410382509 1030.3486923798919 165.54654237627983 101.39100527763367 326.57276698946953 74.28672281652689 91.109473273158073 60.147694706916809 11.00321191549301 198.73483394086361 33.926954790949821 12.846312820911406 93.974946074187756 11.831566721200945 38.574713304638863 142.42175079882145 35.384550876915455 38.161615654826164 65.876428566873074 127.99734822660685 19.289134599268436 9.678185783326624 263.00925216823816 822.64498329162598 12.684548892080782
leaf_count=3401 96 826 181 1912 4260 8452 932 790 2711 610 714 450 69 1552 257 101 648 83 270 1078 240 245 406 950 150 73 2064 6294 87
internal_value=0 0.00670589 0.0188382 -0.00235615 -0.00138667 -0.000165674 0.0280524 0.0083279 -0.00132318 0.0033054 0.00696417 0.00218676 -0.0082062 0.00337022 0.0114778 0.0176938 0.0242831 0.00370927 0.0309201 0.0022458 0.00152998 0.0205037 0.0219824 0.0118973 0.0133017 0.0256178 0.00341649 0.00232742 -0.00904533
internal_weight=0 1256.54 500.406 3771.22 3386.72 2872.42 266.644 233.762 756.138 429.565 327.654 1842.08 514.292 1614.96 253.367 140.748 106.821 112.619 242.283 1426.81 156.065 76.7363 77.697 188.145 54.6737 21.5098 1228.08 1085.65 503.289
internal_count=39902 9333 3310 30569 27168 22752 1628 1682 6023 3312 2486 14300 4416 12388 1876 1006 749 870 1447 10988 1180 515 502 1400 390 156 9436 8358 4347
is_linear=0
shrinkage=0.01


Tree=15
num_leaves=30
num_cat=0
split_feature=291 198 88 27 1 148 249 27 12 51 33 265 279 19 204 9 14 32 88 92 165 73 30 99 84 141 151 27 1
split_gain=756.938 1183.51 467.323 303.032 281.077 302.611 211.419 209.652 181.031 221.714 161.251 155.184 153.057 137.287 117.406 213.348 138.237 122.808 115.252 110.758 114.685 121.132 119.887 121.793 126.698 134.223 108.707 108.373 112.125
threshold=-179.13793945312497 0.36847601996527785 6559.635416666667 -406.59887695312494 3512.5000000000005 0.36285533010959631 -6.3310353755950919 -120.3147850036621 0.023874839767813686 -6.1365056037902823 33.704679489135749 3366.5000000000005 0.01497227977961302 0.85381206870079052 4443.8258011440221 0.046653330326080329 0.025970702059566978 3.4923194646835332 7084.635416666667 2045.277754020731 -3.2766165733337398 -39.037712382826761 -121.54626846313475 -3.9913330078124996 0.11509349197149278 0.28883421421051031 0.99600645899772655 -218.73394012451169 2561.5000000000005
decision_type=2 2 2 2 2 2 2 2 2 2 2 2 2 2 2 2 2 2 2 2 2 2 2 2 2 2 2 2 2
left_child=3 2 6 -1 5 12 -2 8 -3 -10 26 13 -5 -8 17 -16 -17 -11 -18 -14 22 -22 23 -21 -25 -26 -6 -4 -29
right_child=1 7 27 4 10 -7 11 -9 9 14 -12 -13 19 -15 15 16 18 -19 -20 20 21 -23 -24 24 25 -27 -28 28 -30
leaf_value=-0.010575498574523851 -0.009929660185356735 -0.008424149123420056 0.0024502704080364276 -0.0073688207448696407 -0.0097761684011444944 -0.0069630362504706309 0.024721990327638485 -0.0073768164367111876 -0.008396893576466365 -0.0014499041528214305 0.029343125900614522 0.0010508727951803252 -0.0074209637334945811 0.0056096691966611902 -0.0053278953455947074 -0.0059006597334311022 0.042808639011663922 0.024941158602797647 0.020003026986379499 0.0037926681824871447 0.047763192453068308 -0.003495198021655062 0.0028549486704501632 0.0035318355341513374 0.043679436476306781 0.011182833458775569 0.019690558683829473 0.036635064822826462 0.020872461695553301
leaf_weight=399.13159939646721 44.48792377114296 101.29942624270916 13.823633082211016 182.66225698590279 488.08581828325987 528.83880340307951 120.68955162167549 324.83541502058506 73.83948740363121 91.016445443034172 11.201346680521963 68.837122291326523 114.05623307824135 54.580829560756683 32.19118245691061 13.608855746686457 34.459077954292297 21.869087368249893 62.084463573992252 91.605022251605988 4.6779999881982794 318.64288974553347 1532.6196271851659 28.019267208874226 29.988301515579224 22.059973791241646 12.84928300231695 135.5286640226841 67.655796885490417
leaf_count=3522 359 826 101 1549 4269 4460 757 2711 610 714 69 527 913 368 247 107 228 156 424 706 33 2495 11870 216 217 163 87 749 449
internal_value=0 0.00661531 0.0184563 -0.00233699 -0.00135989 -0.00013547 0.0101195 -0.00131216 0.00326535 0.00686381 -0.00818125 0.0137735 0.00141796 0.0187702 0.0112788 0.0173187 0.023937 0.00366278 0.028143 0.00216738 0.00270674 -0.00275356 0.00374261 0.0116673 0.0206766 0.0299062 -0.00902033 0.0295432 0.0313865
internal_weight=0 1260.81 505.604 3764.44 3365.31 2853.17 288.595 755.203 430.368 329.069 512.136 244.108 2324.33 175.27 255.229 142.344 110.152 112.886 96.5435 2141.67 2027.61 323.321 1704.29 171.673 80.0675 52.0483 500.935 217.008 203.184
internal_count=39902 9333 3310 30569 27047 22622 2011 6023 3312 2486 4425 1652 18162 1125 1876 1006 759 870 652 16613 15700 2528 13172 1302 596 380 4356 1299 1198
is_linear=0
shrinkage=0.01


Tree=16
num_leaves=30
num_cat=0
split_feature=291 198 312 27 0 148 22 27 12 51 265 33 279 19 93 225 92 212 291 16 85 135 6 18 206 75 216 297 36
split_gain=740.324 1144.65 446.135 300.158 273.873 297.76 243.505 206.283 177.286 215.977 154.543 153.639 146.762 136.373 169.198 127.272 108.564 114.253 144.198 245.401 189.694 181.966 166.371 162.252 145.825 114.437 113.823 134.111 128.175
threshold=-179.13793945312497 0.36847601996527785 3.7383829355239873 -406.59887695312494 0.46496582031250006 0.36285533010959631 6572.2656250000009 -120.3147850036621 0.023874839767813686 -6.1365056037902823 3366.5000000000005 33.704679489135749 0.01497227977961302 0.60601431131362926 -68.963832855224595 -128.59030914306638 2084.0610497599823 0.20533308386802676 -273.77593994140619 0.050849089398980148 0.12829351425170901 -31.87946796417236 3929.7110595023919 0.21805015951395038 12.905493087342693 0.14346957951784137 0.095311272889375701 -9.2422022819519025 34.40636062622071
decision_type=2 2 2 2 2 2 2 2 2 2 2 2 2 2 2 2 2 2 2 2 2 2 2 2 2 2 2 2 2
left_child=3 2 6 -1 5 12 10 8 -3 -10 13 -6 -5 14 -2 -15 -14 18 20 -20 21 23 -22 -18 25 -21 -27 28 -28
right_child=1 7 -4 4 11 -7 -8 -9 9 -11 -12 -13 16 15 -16 -17 17 -19 19 24 22 -23 -24 -25 -26 26 27 -29 -30
leaf_value=-0.010552419716337032 0.036739666756274769 -0.0083904317357674594 -0.0035451029668118086 -0.0072762856158735557 -0.0088350037646381906 -0.0069223365373335156 0.030202467642846332 -0.0073422181655902309 -0.0083634714946339075 0.011086191193753543 0.0022459086381279711 0.028080806200754801 -0.0043328917574513102 6.753452356891852e-05 -0.0053233749268190812 0.023867835102293559 0.010340673420734435 -0.0012354076208651618 -0.0092224790521843545 -0.0062180601955052163 -0.0050293995712337794 -0.0078169073314259922 0.017282895696586382 0.046585724518352495 0.040723157900996808 -0.0011359567262113853 0.022795465695748293 -0.00889007669602483 6.396212204205117e-05
leaf_weight=396.02007613331079 62.996060848236084 100.69248694181442 80.346639409661293 179.22298756241798 508.88904604315758 525.47418897598982 199.86746653914452 323.11113350838423 73.395447716116905 257.0380185097456 66.385319992899895 11.529418706893919 230.78173490613699 44.65818940103054 11.274499319493769 45.217964187264442 596.68113652616739 489.52856297045946 180.86140002310276 82.596541047096252 187.59107445180416 55.538401186466217 40.662500448524952 12.611805088818071 11.165289759635924 96.361743755638599 94.444327503442764 24.096045702695847 33.641095243394375
leaf_count=3522 367 826 618 1528 4447 4454 1168 2711 610 1876 504 70 1830 310 74 269 4440 3922 1452 643 1454 434 296 89 78 741 724 187 258
internal_value=0 0.00652655 0.0180862 -0.00231799 -0.00134794 -0.000126371 0.0221243 -0.00130128 0.00322615 0.00676606 0.0151207 -0.00801717 0.0014157 0.0203276 0.0303544 0.0120418 0.00214482 0.00292924 0.00436875 0.000199709 0.00681097 0.0095114 -0.00105455 0.0110909 0.00517805 0.00397954 0.00736844 0.0127534 0.0168251
internal_weight=0 1264.98 510.746 3757.7 3361.68 2841.26 430.4 754.237 431.126 330.433 230.532 520.418 2315.78 164.147 74.2706 89.8762 2136.56 1905.78 1416.25 523.166 893.085 664.831 228.254 609.293 342.305 331.14 248.543 152.181 128.085
internal_count=39902 9333 3310 30569 27047 22530 2692 6023 3312 2486 1524 4517 18076 1020 441 579 16548 14718 10796 4083 6713 4963 1750 4529 2631 2553 1910 1169 982
is_linear=0
shrinkage=0.01


Tree=17
num_leaves=30
num_cat=0
split_feature=291 198 312 159 0 148 22 27 18 294 210 60 213 265 279 19 159 14 159 15 92 212 291 16 135 85 265 17 206
split_gain=724.134 1107.52 428.432 304.603 267.875 305.812 230.177 202.98 173.637 216.665 168.777 159.208 151.475 148.388 140.892 129.206 145.14 124.447 115.716 109.483 107.806 119.044 138.542 261.955 164.859 169.362 186.564 154.388 137.441
threshold=-179.13793945312497 0.36847601996527785 3.7383829355239873 -387.76054382324213 0.46653529575892866 0.34774611890316015 6572.2656250000009 -120.3147850036621 0.26613451540470129 -99.188812255859361 0.15769793838262561 -0.57795023918151844 0.42344880104064947 3366.5000000000005 0.01497227977961302 0.60601431131362926 -61.825290679931634 0.02373113110661507 -140.24785614013669 0.99081805348396312 2045.277754020731 0.20533308386802676 -273.77593994140619 0.050849089398980148 -31.87946796417236 0.12829351425170901 4311.5000000000009 0.20155058801174167 12.905493087342693
decision_type=2 2 2 2 2 2 2 2 2 2 2 2 2 2 2 2 2 2 2 2 2 2 2 2 2 2 2 2 2
left_child=3 2 6 -1 5 14 13 8 -3 -10 17 -6 -13 15 -5 16 -2 -11 -17 -12 -16 22 24 -24 25 27 -27 -22 -25
right_child=1 7 -4 4 11 -7 -8 -9 9 10 19 12 -14 -15 20 18 -18 -19 -20 -21 21 -23 23 28 -26 26 -28 -29 -30
leaf_value=-0.010837412211264275 0.035365889507966743 -0.0028004478904041035 -0.003518231869370511 -0.0070106228031298805 -0.010122601333200421 -0.0068457983559600047 0.029414682857682437 -0.0073076935070753692 -0.0068960961736346587 -0.0047070808044781852 -0.00028826910871732807 0.021909905796264346 -0.010415820461470408 0.0022200388483768576 -0.0073600936404534844 0.00053768948935211053 -0.0035467140598460364 0.030845928413934302 0.023155212660632571 0.039805966653818199 0.0093209959818873513 -0.0015691881289306548 -0.0090115085632085923 0.0040839086316343748 -0.0072254958259599334 -0.0054322785115846995 0.015619003641781575 0.037217718208768284 0.039265570905698766
leaf_weight=375.95716536790133 64.231884002685547 228.32593296468258 80.151679277420044 182.38274572789669 444.43671279400587 553.73431993275881 203.15125239640474 321.39988470077515 55.76850376278162 11.451856799423693 58.545253306627274 32.322407230734825 26.283283412456512 66.486799664795399 112.983812533319 45.263707302510738 11.266655966639517 70.181477911770344 45.218253530561924 7.7071204334497443 636.08973708748817 497.74195829033852 201.40001957118511 355.24907156080008 81.418255545198917 162.09374608844519 56.868733480572701 20.47704242169857 11.462422817945479
leaf_count=3401 367 1806 618 1563 3934 4710 1168 2711 448 93 443 237 228 504 912 312 74 467 267 55 4700 3987 1629 2733 638 1262 413 144 78
internal_value=0 0.00643927 0.0177294 -0.00229928 -0.00134816 -0.000169059 0.0216388 -0.00129001 0.00318723 0.00990029 0.0162343 -0.00807971 0.00741257 0.0148435 0.0014258 0.0199001 0.029559 0.0258584 0.0118408 0.00437588 0.00214621 0.00267719 0.0040631 0.000151318 0.00638541 0.00765114 3.51411e-05 0.010191 0.00518359
internal_weight=0 1269.15 515.77 3750.9 3374.94 2871.9 435.619 753.38 431.98 203.654 147.886 503.042 58.6057 232.467 2318.17 165.981 75.4985 81.6333 90.482 66.2524 2135.78 2022.8 1525.06 568.112 956.948 875.529 218.962 656.567 366.711
internal_count=39902 9333 3310 30569 27168 22769 2692 6023 3312 1506 1058 4399 465 1524 18059 1020 441 560 579 498 16496 15584 11597 4440 7157 6519 1675 4844 2811
is_linear=0
shrinkage=0.01


Tree=18
num_leaves=30
num_cat=0
split_feature=291 198 312 159 1 148 88 82 76 60 20 275 67 213 279 240 15 24 92 212 291 15 135 85 265 140 17 75 264
split_gain=708.377 1072.1 411.757 301.788 268.261 301.663 218.201 199.809 165.413 155.913 149.4 315.721 145.671 145 138.717 124.616 134.673 122.759 105.988 116.961 134.291 244.54 161.262 164.91 181.609 160.631 146.748 107.513 112.428
threshold=-179.13793945312497 0.36847601996527785 3.7383829355239873 -387.76054382324213 3512.5000000000005 0.34774611890316015 6559.635416666667 0.4099645614624024 0.88817167282104503 -0.57795023918151844 0.0635817125439644 0.081070315092802062 2305.5000000000005 0.42344880104064947 0.01497227977961302 1.7761976122856142 0.98392012715339672 2255.8809757736653 2045.277754020731 0.20533308386802676 -273.77593994140619 0.056679336354136474 -31.87946796417236 0.12829351425170901 4311.5000000000009 10.858168775607021 0.26425246894359594 0.14346957951784137 0.47371826171875003
decision_type=2 2 2 2 2 2 2 2 2 2 2 2 2 2 2 2 2 2 2 2 2 2 2 2 2 2 2 2 2
left_child=3 2 6 -1 5 14 12 8 -3 -6 -9 -12 -2 -11 -5 16 17 -13 -16 20 22 -22 23 26 -25 27 -20 -23 -29
right_child=1 7 -4 4 9 -7 -8 10 -10 13 11 15 -14 -15 18 -17 -18 -19 19 -21 21 25 -24 24 -26 -27 -28 28 -30
leaf_value=-0.01081681210425465 0.024306754672876671 -0.0056085927857521837 -0.0034915111701893419 -0.0069735341101861779 -0.010123986587850764 -0.006809416657742479 0.028192717848993781 -0.0060131284338274405 0.018787790050781621 0.021046022459169582 0.039239224249539649 -0.0034044750486696214 0.0076131911570631854 -0.010400401777186012 -0.007320773401799238 -0.008951343069316605 0.045603718663754685 0.031415996620381373 0.0094104469398527957 -0.0015529097602430576 -0.0084588454435015423 -0.0067273291816783848 -0.0071897079093597698 -0.0053984778419658465 0.015301884122025527 0.034713627645786893 0.04483326591662453 0.0055809424380050075 0.045297154474824922
leaf_weight=372.92164077609777 85.6578354164958 528.28845721483231 79.958406999707222 181.33787488937378 442.45918023586273 550.75021492689848 220.91217866539955 57.993007928133011 29.335245028138161 33.125385515391827 34.620491228997707 35.426665253937244 134.11898718774319 26.308874554932117 112.28239329904318 41.889926746487617 10.740090064704416 14.176254168152807 648.25980597734451 497.07415142655373 207.88166672736406 77.25009048730135 81.007358729839325 161.48063848167658 57.463785134255886 17.50199556350708 11.910054162144659 257.72581865638494 7.3302651271224013
leaf_count=3401 504 4369 618 1562 3946 4708 1257 442 221 240 223 271 931 230 911 327 76 94 4756 3986 1689 604 638 1262 413 122 80 1968 53
internal_value=0 0.00635416 0.0173862 -0.00228071 -0.00133644 -0.000156632 0.0211742 -0.00127909 -0.00432516 -0.00808123 0.00743832 0.0131385 0.0141195 0.0071261 0.00142371 0.00429968 0.0134985 0.00654703 0.00213621 0.00266061 0.00403148 0.000175845 0.0063112 0.00755526 3.45043e-05 0.0051646 0.0100495 0.00365377 0.00667932
internal_weight=0 1273.12 520.647 3744.07 3371.15 2869.26 440.689 752.47 557.624 501.893 194.846 136.853 219.777 59.4343 2318.51 102.233 60.343 49.6029 2137.17 2024.89 1527.81 567.69 960.122 879.114 218.944 359.808 660.17 342.306 265.056
internal_count=39902 9333 3310 30569 27168 22752 2692 6023 4590 4416 1433 991 1435 470 18044 768 441 365 16482 15571 11585 4436 7149 6511 1675 2747 4836 2625 2021
is_linear=0
shrinkage=0.01


Tree=19
num_leaves=30
num_cat=0
split_feature=291 198 312 159 0 148 22 82 76 297 19 33 265 279 19 159 225 85 151 91 212 291 15 135 85 265 140 18 216
split_gain=692.98 1037.97 395.848 298.996 261.07 296.163 207.808 195.638 161.154 149.916 226.918 147.95 139.386 136.04 121.688 136.473 117.561 113.756 106.175 104.045 112.407 133.775 242.93 159.654 154.042 165.672 152.634 144.898 107.569
threshold=-179.13793945312497 0.36847601996527785 3.7383829355239873 -387.76054382324213 0.46653529575892866 0.34774611890316015 6572.2656250000009 0.4099645614624024 0.88817167282104503 12.513356208801271 0.094453975558280959 33.704679489135749 3366.5000000000005 0.01497227977961302 0.60601431131362926 -61.825290679931634 -128.59030914306638 0.24258282035589221 0.99600645899772655 1837.5154754223295 0.20533308386802676 -273.77593994140619 0.056679336354136474 -31.87946796417236 0.12829351425170901 4282.5000000000009 10.858168775607021 0.21805015951395038 0.10052491724491121
decision_type=2 2 2 2 2 2 2 2 2 2 2 2 2 2 2 2 2 2 2 2 2 2 2 2 2 2 2 2 2
left_child=3 2 6 -1 5 13 12 8 -3 17 -11 18 14 -5 15 -2 -16 -9 -6 -15 21 23 -23 24 27 -26 28 -21 -24
right_child=1 7 -4 4 11 -7 -8 9 -10 10 -12 -13 -14 19 16 -17 -18 -19 -20 20 -22 22 26 -25 25 -27 -28 -29 -30
leaf_value=-0.010796363090530788 0.033874294154293681 -0.0055749566307494985 -0.0034649407063439643 -0.0069421430923859301 -0.0096421348286128972 -0.0067770556653990377 0.027978722838899565 -0.0098037266580772563 0.018362684030226055 -0.0051711667850933242 0.033478695975685924 0.026978188621700872 0.0020883051151926193 -0.0064535584482145652 -0.00013982869327754701 -0.0036535033705060471 0.022471269259378129 0.0091410660455676657 0.019390492330853767 0.0092357003750549536 -0.0014661084752350406 -0.008504382376819955 -0.0029777967197561236 -0.0071540115583556031 -0.0052031985423739071 0.014639996819572374 0.033603432901624229 0.04054146004955924 0.0084316191732463838
leaf_weight=369.90681936591864 66.039987400174141 526.1717103049159 79.766809090971947 180.52615384012461 472.19725306332111 548.24731786549091 209.34859985113144 55.137668035924435 29.712300889194012 23.70190966874361 42.301665246486664 11.794253423810003 67.002049639821053 133.43611918389797 45.238397978246212 11.356768876314161 46.764018133282661 74.548762135207653 12.941734269261358 640.79570865631104 495.91518868505955 205.55277074873447 142.47032605111599 80.599494621157646 155.35430470854044 57.703219421207905 17.897386491298676 15.13396781682968 196.75259163230658
leaf_count=3401 367 4369 618 1563 4244 4710 1168 430 221 178 262 69 504 1077 310 74 269 563 86 4673 3981 1681 1097 638 1218 411 122 100 1498
internal_value=0 0.00627025 0.0170517 -0.00226234 -0.00132486 -0.000166305 0.0207231 -0.00126834 -0.00429548 0.00733067 0.0195995 -0.00801688 0.0142978 0.00139447 0.0191269 0.0283677 0.0113532 0.00108647 -0.00886765 0.0020972 0.00266537 0.0040202 0.000156413 0.00630967 0.00755844 0.000171013 0.00514143 0.009958 0.00363978
internal_weight=0 1277.09 525.517 3737.22 3367.32 2870.38 445.75 751.574 555.884 195.69 66.0036 496.933 236.401 2322.14 169.399 77.3968 92.0024 129.686 485.139 2141.61 2008.17 1512.26 562.673 949.587 868.987 213.058 357.12 655.93 339.223
internal_count=39902 9333 3310 30569 27168 22769 2692 6023 4590 1433 440 4399 1524 18059 1020 441 579 993 4330 16496 15419 11438 4398 7040 6402 1629 2717 4773 2595
is_linear=0
shrinkage=0.01


Tree=20
num_leaves=30
num_cat=0
split_feature=159 199 270 159 66 279 67 265 150 82 72 93 17 291 159 20 275 15 312 76 274 142 114 283 15 211 149 76 85
split_gain=730.881 1128.65 383.245 303.526 278.632 265.951 237.725 235.568 294.258 210.995 202.369 193.959 163.986 249.004 153.232 149.887 293.351 149.077 148.226 145.783 139.094 132.157 128.363 126.306 126.214 124.699 122.482 120.483 116.279
threshold=-189.26524353027341 3695.5000000000005 3696.9064628372648 -387.76054382324213 0.47485351562500006 0.14436519891023639 2252.5000000000005 3677.5000000000005 0.11961903050541879 0.39291787147521978 3852.3864318701148 -276.93107604980463 0.0284732123836875 -322.15051269531244 -325.66542053222651 0.0635817125439644 0.084130834788084044 0.97575637698173534 5.5702946186065683 0.92082658410072338 0.49795208871364599 0.88481143116951 -7.2395143508911124 0.31627386808395391 0.093732785433530821 0.12568870186805728 0.068176958709955229 0.03921110928058625 0.28582844138145452
decision_type=2 2 2 2 2 2 2 2 2 2 2 2 2 2 2 2 2 2 2 2 2 2 2 2 2 2 2 2 2
left_child=3 2 6 -1 5 7 18 12 14 19 -10 20 -5 -14 -9 -11 -17 -18 -2 -3 -12 26 -7 -19 -23 -26 28 -28 -15
right_child=1 9 -4 4 -6 22 -8 8 10 15 11 -13 13 21 -16 16 17 23 -20 -21 -22 24 -24 -25 25 -27 27 -29 -30
leaf_value=-0.010881463955208691 0.030508774367529287 -0.0062068818775590064 0.025475311857087908 0.01146721342174031 -0.0080604205222818224 0.006301417581440546 0.00089301858002382376 0.0040528379539250432 -0.001498902520925002 -0.0062643154130746174 0.033310926193506639 0.00064207886930241686 -0.0053603581695653079 0.008731346628912548 -0.0085712236529553992 0.038381472722342415 -0.001209515513154351 -0.011857782645969303 -0.005601853330275173 0.018641013039350781 0.0088118961297609499 0.0011519941642396884 -0.0055534217128629946 0.051205378845548419 0.043395613029459539 0.0054773470464241992 0.035192050683783623 -0.0025336811114285355 0.0485516090491196
leaf_weight=364.50288433581591 56.027521356940269 478.52860609441996 292.4970783367753 306.40640611201525 516.43184530735016 101.86142431944609 149.8890139311552 121.48021704703569 180.72134783864021 55.221919924020767 55.254659861326218 65.158336520195007 248.84468653798103 208.92473670840263 461.13871517777443 34.503082007169724 79.247296176850796 4.4832596331834784 14.260511979460714 24.837334468960762 39.915870271623135 21.459084548056126 884.03313318639994 10.891383349895476 27.049548976123333 12.766152657568453 8.870769336819647 185.26220417767763 7.599951520562171
leaf_count=3379 308 3998 1643 2305 4597 839 1104 968 1408 422 390 510 1884 1573 3743 214 598 34 109 183 292 161 7370 76 193 101 62 1430 56
internal_value=0 0.00674334 0.0179739 -0.00220271 -0.00128662 -9.54361e-05 0.00800855 0.00204386 -0.00162061 -0.00162879 0.00575655 0.0139348 0.00533904 0.00273392 -0.00593902 0.00752406 0.0134208 0.00431914 0.0231824 -0.00498082 0.0230357 0.00700195 -0.00432859 0.0328161 0.0207015 0.0312378 0.00495783 -0.00080983 0.010129
internal_weight=0 1200.39 512.674 3817.68 3453.18 2936.75 220.177 1950.85 923.669 687.713 341.05 160.329 1027.18 720.777 582.619 184.347 129.125 94.6219 70.288 503.366 95.1705 471.932 985.895 15.3746 61.2748 39.8157 410.658 194.133 216.525
internal_count=39950 8689 3164 31261 27882 23285 1521 15076 7311 5525 2600 1192 7765 5460 4711 1344 922 708 417 4181 682 3576 8209 110 455 294 3121 1492 1629
is_linear=0
shrinkage=0.01


Tree=21
num_leaves=30
num_cat=0
split_feature=159 199 270 159 66 280 67 16 88 1 18 96 225 213 95 258 231 174 76 312 300 15 208 114 265 77 126 144 291
split_gain=714.926 1092.95 365.877 300.729 274.989 269.533 229.243 202.031 200.79 188.344 196.191 211.342 174.816 174.296 173.839 148.148 144.751 146.468 144.227 141.682 140.611 133.297 132.741 129.897 120.977 114.297 113.52 113.476 112.347
threshold=-189.26524353027341 3695.5000000000005 3696.9064628372648 -387.76054382324213 0.47485351562500006 0.24263463169336322 2252.5000000000005 0.45183624327182775 6933.5937500000009 2253.5000000000005 0.084526311606168761 -118.1607322692871 -318.48683166503901 0.060765478760004051 1.6622453331947329 -23.57692718505859 9.0510468482971209 -18.415156364440914 0.92082658410072338 5.5702946186065683 46.500766754150398 0.98392012715339672 0.36788037419319158 -7.2395143508911124 3689.5000000000005 0.17428117245435717 -2.4249087572097774 0.25856098532676702 -313.02085876464838
decision_type=2 2 2 2 2 2 2 2 2 2 2 2 2 2 2 2 2 2 2 2 2 2 2 2 2 2 2 2 2
left_child=3 2 6 -1 5 9 19 18 21 13 12 20 14 15 -11 -5 17 27 -3 -2 28 -9 -23 26 -14 -10 -7 -17 -12
right_child=1 7 -4 4 -6 23 -8 8 25 10 11 -13 24 -15 -16 16 -18 -19 -20 -21 -22 22 -24 -25 -26 -27 -28 -29 -30
leaf_value=-0.010861981936541568 0.029735978693141454 -0.0063672788506295621 0.024894176145187106 0.041715469046178892 -0.0080277837475485996 -0.010030355640070708 0.0008835625845588248 -0.0019912267694273175 0.032772628128608379 0.013955827259115381 0.00094364031002424286 -0.000251661316454498 0.0023212113368727169 -0.00055643662528869755 -0.0041366433558997504 -0.0053310785278190389 0.045809903008605761 0.0055024651405997825 0.018224206493895095 -0.0055671556587917346 -0.0011263348051642954 -0.0052712504717914452 0.050086647252373842 -0.0070066707127846295 -0.0096422244847415416 -0.0075159258579028786 0.012884704602851038 0.031501249591065698 0.023201677937538388
leaf_weight=361.52002742886543 56.904258251190186 461.27224551141262 296.31241071969271 13.398565992712973 513.3615208864212 32.184879638254642 149.97776286303997 136.42979866266251 37.328967161476612 91.151109412312508 29.308516062796116 440.05018404871225 105.8628835529089 310.51361994445324 127.24103331565857 10.650123141705988 9.9462123513221723 453.84759517759085 25.149739660322666 14.206171065568922 53.337257765233517 7.4120644778013256 10.422381475567816 634.27442846447229 419.37677057832479 8.6786892414093 65.851395256817341 38.977055571973324 100.22562684118748
leaf_count=3379 308 3864 1643 96 4597 273 1104 1051 240 705 213 3425 811 2414 1007 80 63 3378 183 109 413 55 70 5436 3439 62 533 272 727
internal_value=0 0.00665454 0.0176304 -0.00218478 -0.0012754 -9.48189e-05 0.00789518 -0.0016154 0.00683785 0.00165167 -0.00063665 0.00350323 -0.00410453 0.00538628 0.00341468 0.00888899 0.00803233 0.00728603 -0.00509581 0.0226833 0.0125388 0.00136965 0.0270797 -0.00535087 -0.00723098 0.0251728 0.00536179 0.0235969 0.0181656
internal_weight=0 1204.09 517.401 3811.08 3449.56 2936.2 221.088 686.694 200.272 2203.89 1366.55 622.922 743.632 837.333 218.392 526.82 513.421 503.475 486.422 71.1104 182.871 154.264 17.8344 732.311 525.24 46.0077 98.0363 49.6272 129.534
internal_count=39950 8689 3164 31261 27882 23285 1521 5525 1478 17043 10740 4778 5962 6303 1712 3889 3793 3730 4047 417 1353 1176 125 6242 4250 302 806 352 940
is_linear=0
shrinkage=0.01


Tree=22
num_leaves=30
num_cat=0
split_feature=159 66 270 159 66 280 16 66 1 18 96 17 291 27 95 297 192 312 300 76 210 22 85 28 72 84 75 142 129
split_gain=699.382 1061.87 333.092 297.956 271.391 264.911 231.727 194.445 183.808 192.474 204.944 189.53 276.92 171.417 160.585 158.635 140.593 140.458 135.113 132.494 132.211 213.942 130.127 127.8 126.76 108.483 107.902 139.207 112.503
threshold=-189.26524353027341 0.37377929687500006 3696.9064628372648 -387.76054382324213 0.47485351562500006 0.24263463169336322 0.46249032020568853 0.27596028645833343 2253.5000000000005 0.084526311606168761 -118.1607322692871 0.028011625632643703 -322.15051269531244 -329.74621582031244 1.6752836704254153 21.698701858520511 -1.2373544573783872 5.5702946186065683 46.500766754150398 0.92082658410072338 0.31772729754447943 6023.1584821428578 0.24652390927076342 -0.35388584434986109 3412.6821304513164 0.028994969092309478 0.063563615083694472 0.36995954811573034 -7.0271995067596427
decision_type=2 2 2 2 2 2 2 2 2 2 2 2 2 2 2 2 2 2 2 2 2 2 2 2 2 2 2 2 2
left_child=3 2 7 -1 5 8 19 17 11 13 18 -5 -13 14 24 22 20 -2 26 -3 21 25 -8 -24 -10 -14 -11 -28 -29
right_child=1 6 -4 4 -6 -7 15 -9 9 10 -12 12 16 -15 -16 -17 -18 -19 -20 -21 -22 -23 23 -25 -26 -27 27 28 -30
